2785 100
the -0.052884165 0.20121653 -0.27094454 0.06892306 0.30811074 -0.83448815 -0.5616857 -0.4223397 0.005601541 0.7796429 -0.36673155 -0.6169075 0.054520216 -0.1188461 0.26235625 0.08366194 -0.06636353 0.12746578 -0.185327 0.46113637 -0.31122148 -0.2793827 0.10783753 0.2702749 0.31185767 0.49228004 0.6456887 0.16140985 0.030479543 -0.21652612 0.04964461 -0.13263138 0.16600701 0.18356875 0.1772606 -0.29677707 0.26196906 -0.2531693 0.24553713 0.06260081 -0.96454847 -0.22444086 0.19409557 0.019307904 0.1774431 -0.5633519 -0.20745687 -0.23275591 0.22132726 -0.09595996 -0.17827164 0.11676251 0.03407347 0.07748617 -0.12376435 0.3243607 -1.0618001 0.2200009 0.16970596 0.19290465 0.29002315 0.6905627 0.2679048 -0.042903494 0.5604865 0.0066704266 0.25302097 -0.021369444 0.4980055 0.35928795 -0.42220107 -0.41600338 0.34833798 0.69399226 -0.20458268 0.11828 0.042495694 -0.13273162 -0.22677273 0.10247129 -0.07869087 0.27553743 0.25840485 -0.08270472 -0.5695391 -0.2285388 -0.38834468 -0.42602578 -0.22768724 -0.020605244 0.024388343 -0.61004084 0.080418326 -0.065829426 0.32093915 -0.12026778 0.18590182 0.03289428 -0.50696874 0.09804197
i 0.6032876 -0.39846116 -0.39391887 -0.14710751 -0.44662753 0.045770887 0.29350966 -0.38759473 -0.21849348 0.16384879 0.72621584 -0.604908 -0.38668427 0.1551465 0.9815971 -0.4717664 -1.0134575 0.27934504 -0.18489018 -0.4572978 -0.4494029 -0.4228441 -0.22937961 0.080864 0.7841719 0.11020588 0.6961145 0.29445347 0.11054006 -0.26829773 0.79574835 -0.9290783 -0.2724945 0.55722725 1.1627264 0.43042365 -0.06489676 -0.63430166 0.44122478 -0.7966949 -0.41620576 0.015994184 0.956307 0.5338144 0.68551123 -0.03768863 -0.2127983 -0.4018642 0.30309883 -0.5687522 0.25347912 -0.9134866 -0.3132439 -0.8004079 0.027222022 0.6751818 -0.4151621 1.2115811 0.7892787 0.22669168 0.7154111 1.0938677 -0.3079288 -0.014040566 0.38814604 0.1432852 -0.6806986 -0.3025687 0.8906342 -0.12077604 -0.5608538 -0.93377376 0.09112957 -0.1535935 0.6572878 -0.05951818 -0.44736698 -0.21233869 -0.42249987 0.27409723 1.0099446 1.6533953 -0.559409 -0.5669192 -0.9766164 -0.53679633 -0.17675382 -0.13268724 0.3987611 0.08375731 1.1093503 0.19639632 0.37359983 0.29326907 0.41149643 0.5039167 -1.1553152 -0.2003438 -0.9277665 1.2251605
it 0.105172604 -0.21078359 -0.25615746 0.42446196 0.02212659 -0.27772704 0.28230163 -0.2534455 -0.14580809 0.008825374 0.6153088 -0.002910236 0.13442558 0.15877965 0.49119934 -0.25388002 -0.51092815 0.34449053 -0.027821029 -0.2755859 -0.2934024 -0.47327563 0.05428411 -0.42456105 0.5987701 0.43063217 0.6534132 0.27228352 0.35552907 -0.146024 0.36164975 -0.088234976 -0.015766475 0.43952265 0.50147605 0.044943895 -0.010873889 -0.02007185 -0.14769162 -0.2657841 -0.6541095 0.22219503 0.42028657 0.21265867 0.32307038 -0.57895607 -0.022263631 -0.36574465 -0.0518845 -0.33220854 0.06573411 -1.0476701 -0.42700905 -0.21011 0.23387997 0.06427885 -0.33248246 0.5897839 0.16859846 0.1649879 -0.020730307 0.8671477 0.23478526 0.32987452 0.5084529 0.018876633 -0.31992874 -0.27853063 0.8347531 -0.19468598 -0.32789505 -0.7732566 0.13057818 0.27556014 0.5573316 0.08285664 0.077118784 -0.19244334 -0.052454222 0.1714653 -0.08120086 0.6504448 -0.39041215 -0.4074384 -0.4855882 -0.6869199 -0.5570791 -0.56680036 -0.50973696 0.10024258 0.40726224 -0.3441539 0.6078042 -0.36420605 -0.1591243 0.2845867 -0.28662732 0.04809839 -0.6605465 0.85413915
a -0.27547082 -0.18106078 -0.30555996 0.22169764 0.34891188 -0.60539335 -0.13692762 -0.4017284 0.0449625 0.50172997 0.14656445 -0.46236238 0.21115336 0.11527285 0.23574506 -0.06625259 0.032414276 0.27451554 -0.33287573 0.028252283 -0.4708691 -0.19815569 0.17219667 -0.011898478 0.43634388 0.38756204 0.4913853 0.15374042 0.22903238 -0.2503912 -0.008962648 0.21311226 0.20130327 0.24899675 0.13106976 -0.2150225 0.22304064 -0.0040271836 -0.03898727 0.008657568 -0.7280255 -0.16983947 0.23470478 0.08979768 0.05006887 -0.5854489 -0.08847665 -0.27923697 0.14463706 -0.05711706 -0.24688105 -0.38291475 0.088717915 -0.075875536 -0.017167984 0.16217001 -0.53378034 0.30011573 0.21749197 0.062807724 0.066606805 0.7636857 0.29511428 0.105804004 0.31196085 -0.05794193 -0.026098533 -0.31049058 0.62511027 -0.08785154 -0.37877268 -0.41630465 0.36102518 0.7585007 0.10879659 0.14106633 -0.0026009064 -0.20528086 -0.06891349 0.03377255 -0.2584839 0.32736453 0.14997971 -0.059581503 -0.7018222 -0.44611955 -0.49094582 -0.2975158 -0.37171656 -0.06988549 -0.12182255 -0.45387352 0.15340516 -0.3245162 0.115004346 -0.15284207 0.058376018 0.0040271194 -0.4039933 0.48224407
and -0.0447476 -0.01567645 -0.43481383 0.021546757 0.4998969 -0.79141766 -0.46106178 -0.18792692 0.00086305017 0.57152045 -0.1328661 -0.4265432 0.34257573 0.026643433 0.042175595 0.19777787 0.3283653 0.4216653 -0.41786632 0.29455286 -0.62870604 -0.10978844 0.2833371 0.07124733 0.50698644 0.7376734 0.62712044 0.11317561 0.37132213 -0.27149147 0.04128106 0.4100833 0.19862188 0.2696589 0.16652466 -0.21514785 0.2895755 -0.19889642 0.11701458 -0.05996708 -0.95381325 -0.3276415 0.06274616 -0.013033056 -0.11971832 -0.61457384 -0.03680038 0.0073086335 0.07247476 0.39493296 -0.34023657 -0.07577214 0.06570236 0.054167736 -0.0029331152 0.07910044 -0.6739267 0.28765142 0.04631274 0.11709154 0.1057097 0.6181276 0.3585642 0.11618221 0.4135386 0.010415972 0.088374436 -0.18434419 0.4524039 -0.12804788 -0.40992475 -0.15896776 0.27884093 0.45299876 -0.06467735 0.23090583 -0.21021174 -0.3818312 -0.0048437244 0.019677449 -0.41461176 0.12791267 0.43577406 -0.0697859 -0.6122472 -0.33121032 -0.5179848 -0.22325742 -0.46673286 -0.06566683 -0.3062468 -0.31414783 -0.0038632632 -0.35293943 0.25790685 -0.3329361 0.16902998 0.19446181 -0.28472745 0.3168309
is -0.17118062 -0.39153746 -0.46399865 0.3411919 0.18534955 -0.3177979 0.020003768 -0.12237156 -0.0037064704 0.2701658 0.10028741 -0.42593935 0.4344017 0.47937182 -0.017192155 0.17848852 0.42067102 0.4777359 -0.49086392 0.22711086 -0.5567368 0.028274713 0.21571115 -0.2131952 0.6120375 0.57787627 0.641992 -0.047388703 0.7362999 -0.19301867 -0.049543053 0.8234568 -0.011278044 -0.25205222 0.14204799 -0.48124155 -0.014590263 -0.18949838 0.012469064 -0.3688583 -0.56729114 -0.40842316 -0.04077887 0.116987534 -0.031775974 -0.5403089 -0.10222637 0.12045368 0.02653953 0.5634831 -0.41728404 -0.20761025 0.27149883 0.100826815 -0.25031224 -0.008662243 0.052662924 0.5268844 0.0112164635 0.048946064 -0.0040807985 0.61911976 0.41153556 -0.06571328 0.0141788 -0.4071582 -0.22224991 -0.45953304 0.7865568 -0.67814934 -0.5865643 -0.14346594 0.5202683 0.45211843 0.025387349 0.37755975 -0.14208302 -0.43961784 0.09208758 -0.25478938 -0.5092815 -0.12361436 0.6726094 -0.16985999 -0.58917046 -0.43008554 -0.77859145 0.21999325 -0.20705597 -0.19802034 -0.423193 -0.068902984 0.10040411 -0.4085793 0.3217156 -0.17510767 -0.185095 0.5702725 0.13794242 0.4276928
to 0.40434825 -0.2569626 -0.2263203 -0.08929791 -0.03817448 -0.22658773 -0.16789965 -0.39595038 -0.19100034 0.47070077 0.4017025 -0.4972208 -0.07029353 0.23065296 0.34532437 -0.014100407 -0.26838356 0.1516711 -0.36951336 -0.076893315 -0.32439342 -0.28876787 0.049179602 -0.06217644 0.72871864 0.27558252 0.6519353 0.2087854 0.24290209 -0.32788336 0.5091751 -0.252949 -0.098285235 0.22390434 0.7341903 0.06806534 -0.07890596 -0.33807918 -0.05673583 -0.52058995 -0.60930866 0.13902476 0.34206426 0.15751211 0.37320474 -0.37393948 -0.09642863 -0.11731288 0.12663855 -0.16334568 0.1556883 -0.44540173 -0.23832309 -0.32289138 0.020851396 0.20796792 -0.36053467 0.7299519 0.41161847 0.19760805 0.26067996 0.9849157 0.06751161 -0.0794505 0.38743696 0.31915182 -0.25865787 -0.28670922 0.8749364 -0.19330768 -0.4609743 -0.7046788 -0.08570201 0.29705575 0.14652848 0.14581433 -0.29504898 -0.23594248 -0.2968453 0.11579684 0.23856947 0.8850442 0.05432196 -0.55343646 -0.5136999 -0.23220463 -0.30093533 -0.22339159 -0.093651496 0.10764745 0.3819296 -0.20201676 0.46382496 0.0034699778 0.22504118 0.14963967 -0.4994789 -0.042283162 -0.5221936 0.7378488
of 0.09076915 -0.113668896 -0.28480142 -0.010928576 0.3303776 -0.8570789 -0.5887187 -0.4599087 -0.025392154 0.81062454 -0.32280654 -0.7292418 0.08716756 0.17983857 -0.029968403 0.10509402 0.30176044 0.25199437 -0.3612878 0.743814 -0.5779033 -0.15804692 0.12835371 0.25217083 0.49605396 0.51647925 0.6663333 0.04879793 0.19833112 -0.4252151 -0.13458 0.3970718 0.1575304 -0.089243434 0.30580956 -0.4030812 0.07117197 -0.4055566 0.28974867 -0.19650763 -0.9481504 -0.3687067 0.027173782 -0.1865012 -0.041634712 -0.6136117 -0.19112043 -0.14903012 0.161339 0.413828 -0.25572482 0.31468296 0.10181717 0.16231944 -0.12401264 -0.016853923 -0.61067367 0.21035117 0.0071181725 0.15107419 0.3055601 0.86763227 0.19983523 -0.15640967 0.2644607 -0.13402781 0.17601109 -0.25147846 0.6956442 0.052066367 -0.47970977 -0.17960887 0.4948552 0.69031113 -0.35524932 0.24850023 -0.20573801 -0.2921779 -0.28207093 0.0098754885 -0.27919433 0.038773246 0.74354094 -0.11274693 -0.72535056 -0.13704886 -0.7031999 -0.17857392 -0.06917889 -0.13673608 -0.3002868 -0.40598875 0.13276456 -0.18300697 0.29825535 -0.18899165 0.25013855 0.071909405 -0.18736114 0.030836837
this -0.029696504 -0.29062915 -0.21863471 0.31505466 -0.091966935 -0.367264 0.1307537 -0.44286123 -0.25599748 0.2518684 0.32262877 -0.43121886 -0.10414438 0.1153051 0.5124308 -0.30351982 -0.6751172 0.18018778 -0.08491448 -0.008423871 -0.1986189 -0.35667494 -0.01676071 -0.15797657 0.45700657 0.15241447 0.6547453 0.21569824 0.23338751 -0.099218585 0.084628806 -0.26686823 -0.12834984 0.21095534 0.5342317 -0.15892279 -0.032407798 -0.0675341 0.007764651 -0.26623866 -0.49322826 0.14677723 0.43135366 0.21055302 0.36101317 -0.42282128 -0.060976326 -0.40007013 0.14196949 -0.46492058 -0.031893604 -0.5606237 -0.098873906 -0.11683965 -0.071785174 0.198151 -0.43086138 0.54127854 0.3362246 0.203587 0.24267815 0.96005017 0.12751447 0.04506805 0.32587814 -0.11273199 -0.19490434 -0.22856069 0.9259186 -0.23185375 -0.39193988 -0.5913696 0.28631365 0.51449716 0.22601333 -0.070312314 0.022982346 -0.070629105 -0.27494124 0.032171384 0.13417444 0.54337084 -0.0778273 -0.28326863 -0.6315037 -0.6327061 -0.5805331 -0.31323245 -0.19305913 0.0045509883 0.44961634 -0.36684626 0.34206432 -0.21376544 0.10483012 0.32728875 -0.38357654 0.07148041 -0.56778854 0.57848966
in 0.20528083 -0.22703905 -0.20755957 -0.102180295 0.16732164 -0.55123967 -0.34483004 -0.47535664 -0.051056653 0.7385605 -0.056749344 -0.623028 -0.058528636 0.16560045 0.052874386 -0.006484782 0.18106267 0.26185846 -0.3097356 0.44469035 -0.5109988 -0.16599727 0.14491828 0.16030085 0.5938479 0.3989941 0.6541772 0.10157029 0.10323781 -0.34834954 0.09493008 0.07518492 0.08671503 0.010387324 0.43928313 -0.27747738 -0.01332565 -0.39643565 0.1092502 -0.22754514 -0.7985576 -0.20374405 0.16611458 -0.032900568 0.14752774 -0.5043608 -0.17687917 -0.2296792 0.1539922 0.11016093 -0.065458894 0.020731727 0.058926992 0.0005467114 -0.09258723 0.09060674 -0.50960785 0.34729144 0.168144 0.15780815 0.2904965 0.86016196 0.09603082 -0.15226485 0.23275203 0.035016026 0.010416376 -0.2987438 0.777138 0.014558207 -0.40389898 -0.46751183 0.296229 0.6059985 -0.21819426 0.21395577 -0.20595047 -0.30395105 -0.3120087 0.08322636 -0.024150139 0.36041427 0.47429526 -0.26620248 -0.7167596 -0.16052103 -0.5129677 -0.15250899 -0.036234107 -0.020472975 -0.05101203 -0.37128016 0.23245963 -0.016830599 0.24784115 -0.08600205 0.031889807 0.07118798 -0.31773984 0.21180877
s 0.20371799 -0.23368701 -0.569777 0.3541568 0.03810613 -0.22398768 0.21998563 -0.16406186 0.11412442 0.22374411 0.467219 -0.22451593 0.48587137 0.46422386 0.12296573 0.21870644 0.43164045 0.40967637 -0.41342032 -0.1403716 -0.62124336 -0.03406324 0.3866679 -0.31262863 0.7908706 0.7609147 0.71364546 0.016404407 0.62932444 -0.2712615 0.25724787 0.56582844 -0.020941906 -0.08463479 0.24612176 -0.1441127 -0.23002902 -0.09166809 -0.27677816 -0.44020107 -0.59153974 -0.3414082 -0.056572683 0.16988505 0.13196626 -0.5117341 0.005755068 0.19578832 -0.10866901 0.48557875 -0.18782361 -0.6729889 -0.121026665 0.039583273 0.15721132 0.13771138 0.014373413 0.54188454 0.09291338 0.09592118 -0.11391758 0.5143145 0.45017147 0.22477049 0.20139752 -0.08990871 -0.37813765 -0.4076421 0.7981261 -0.6646898 -0.36935568 -0.4842005 0.25772965 0.3429606 0.34103802 0.44690767 -0.100609995 -0.60559416 0.17806837 -0.060152102 -0.44372177 0.19892669 0.3001499 -0.32481024 -0.52532244 -0.44219795 -0.47067207 -0.040336065 -0.39925736 -0.05170918 -0.2902345 -0.13426954 0.21882835 -0.32469076 0.24343467 -0.17313641 -0.3157452 0.40684345 0.058618233 0.7490275
but 0.11336188 -0.12615749 -0.519416 0.26544493 0.08375181 -0.344767 0.044820067 -0.05705313 -0.1361508 0.17606175 0.25497636 -0.1590819 0.30832154 0.22529209 0.29885513 0.114375584 -0.051005952 0.32627505 -0.2785272 -0.1359521 -0.40252212 -0.12960923 0.21818565 -0.27617413 0.62000346 0.625904 0.6943909 0.07673385 0.53765494 -0.11155673 0.28198597 0.22848779 -0.06805125 0.24576566 0.3433268 -0.09354343 -0.08168063 -0.112759665 -0.07337556 -0.38107243 -0.6216444 -0.10160717 0.14974762 0.23812954 0.22605221 -0.53988886 0.012434581 0.08505663 -0.016570484 0.1706137 -0.1373508 -0.61505604 -0.15879436 -0.073908806 0.053779688 0.1675204 -0.24734876 0.6051105 0.19413921 0.11900638 0.037122548 0.5494997 0.42689705 0.2606822 0.41151166 -0.04348454 -0.22903821 -0.2291743 0.66861784 -0.48818147 -0.41864407 -0.43528858 0.07904687 0.16510323 0.33367652 0.1982315 -0.10100695 -0.36068818 0.087885305 -0.048231073 -0.27785754 0.37495267 0.07093894 -0.316116 -0.40130678 -0.54392374 -0.49260983 -0.13112481 -0.41932625 0.058413725 0.04419965 -0.21475098 0.22214359 -0.30186844 0.22455008 -0.040125657 -0.3527027 0.32918227 -0.24746558 0.69004047
that 0.28564936 -0.04224364 -0.50296986 0.2695368 -0.04586049 -0.45293722 -0.034103226 -0.22163153 -0.15221113 0.33239493 0.31605795 -0.36191645 0.21957918 0.090210676 0.5617071 0.07038638 -0.52534693 0.13863565 -0.17224212 -0.092322126 -0.31050774 -0.3492443 0.14648426 -0.29158375 0.6001554 0.5060747 0.79397094 0.19468069 0.51736045 -0.2588626 0.33774662 -0.118122056 -0.054605585 0.26727697 0.5917697 0.04971972 -0.18380709 -0.1359275 -0.113669544 -0.3669643 -0.69689435 -0.014764966 0.32194832 0.18740286 0.36673775 -0.47730112 0.009114932 -0.0021954095 -0.003545534 -0.07640198 0.021486608 -0.522272 -0.45638883 -0.015361651 0.085580334 0.34330565 -0.51617724 0.4893363 0.26995832 0.22517109 0.12059889 0.829481 0.26266897 0.28649506 0.42265603 0.09702305 -0.13185668 -0.13842969 0.61431104 -0.30170912 -0.33141637 -0.46055508 0.15662631 0.3211451 0.27502248 0.02459887 0.025169402 -0.31715843 -0.051364206 -0.06644454 -0.05570605 0.5786275 0.055714257 -0.40277317 -0.3703613 -0.51045877 -0.42573845 -0.34023938 -0.448236 0.0065810517 0.27651808 -0.21320525 0.36397547 -0.26526362 0.22677897 0.19211955 -0.46539444 0.10211777 -0.4678066 0.77723217
for -0.16099241 -0.66188204 -0.15687105 -0.007893817 0.19439201 -0.17531002 -0.016130941 -0.26460844 -0.43109822 0.16057348 -0.03233002 -0.3237149 -0.28435478 0.33606088 0.078045554 -0.38591477 0.0301134 0.4224435 -0.32403833 0.0719051 -0.24290653 0.0297934 -0.0032834425 0.11189287 0.40950882 0.10748722 0.38940626 0.09973912 0.16729175 0.14177488 0.04316639 0.047595788 -0.18578264 0.24501358 0.33477044 -0.35206488 0.24443263 -0.20270906 0.31556833 -0.4304515 -0.3214723 0.18235686 0.27310914 0.2489916 0.10984344 -0.34257326 -0.055509612 -0.34674346 0.13380447 -0.06519204 -0.35095453 -0.31159955 0.47396895 -0.35581806 -0.33128807 -0.23085546 0.04010257 0.86848146 0.40388927 0.055105936 0.26161844 0.7494348 0.098982334 -0.38544667 0.16428775 -0.2546204 -0.33575556 -0.4638432 1.1470802 -0.31335336 -0.5929354 -0.4702034 0.036855176 0.2761844 0.051448237 0.21528333 -0.43433952 -0.024173498 -0.34729877 0.15740463 0.021439383 0.43613347 0.03143682 -0.17036735 -0.71864766 -0.4533362 -0.73162687 0.21555649 0.19793177 0.23809765 0.13172619 -0.3822447 0.1568898 -0.052663285 0.07231943 -0.010065316 -0.3080868 0.2974852 -0.36927354 0.29899457
my -0.19589822 -0.46384946 0.092442445 -0.07883359 0.17494273 -0.23646566 -0.113485195 -0.56357574 -0.17795175 0.6251321 0.1158095 -0.47556174 -0.58322424 0.14253227 -0.1281069 -0.6546254 0.3640428 0.5308528 -0.3669378 0.101267256 -0.35090947 0.046758227 -0.023132678 0.33534256 0.22771582 -0.019679828 0.40386218 0.17603958 -0.3250259 0.066314496 0.08951965 -0.3995863 0.0038172207 0.26601985 0.21278863 -0.5032295 0.38790774 -0.3605304 0.40339395 0.08001421 -0.56013167 0.3080925 0.37249127 0.21039099 0.22373238 -0.38540396 -0.4453981 -0.8337518 0.40153676 -0.5877168 -0.14964487 -0.57837915 0.7041472 -0.5913376 -0.30188274 -0.18193232 -0.27839944 0.7707215 0.52306944 0.118032336 0.47078654 0.8068871 0.040060192 -0.51344424 0.37101445 0.0129216 -0.37368837 -0.48470482 1.2100687 0.23073453 -0.577149 -0.9603669 0.0901308 0.6472284 -0.089374036 0.29877767 -0.4958314 0.08818742 -0.5531291 0.5278036 0.25521368 0.6941899 -0.14248444 -0.16173443 -1.2280645 -0.22439453 -0.48604822 -0.006939122 0.50992286 0.3679515 0.4598936 -0.6412655 0.3096986 0.15863319 -0.02267201 -0.16021387 0.022953214 -0.15735014 -0.60207784 0.102909125
on -0.069263354 -0.6153242 0.08087185 -0.28468072 0.26681504 -0.09107934 -0.18258777 -0.36251828 -0.31166837 0.48253852 0.18932393 -0.37832472 -0.46506935 0.43562272 -0.34753725 -0.46358627 0.6305663 0.6048166 -0.46982053 0.2139652 -0.40212744 0.108538084 0.021965282 0.30418462 0.47537836 0.1972525 0.36255202 0.11795648 -0.18472518 -0.049598653 0.12724143 0.033977553 -0.015875135 0.21682625 0.3270163 -0.49879235 0.26682177 -0.41459465 0.34436908 -0.24147579 -0.466334 0.30467436 0.119977154 0.13892557 0.009980947 -0.45542377 -0.24695882 -0.56909907 0.197023 -0.22153302 -0.1604911 -0.46747836 0.7024983 -0.5267323 -0.21186182 -0.43856853 0.13404489 0.8301218 0.2855544 0.02834008 0.3386105 0.8134031 0.11912974 -0.51039773 0.24489014 0.058561098 -0.45134214 -0.52310866 1.302397 -0.057291627 -0.61980176 -0.83648896 -0.11925839 0.40717617 -0.12111701 0.28217986 -0.7086015 -0.029255193 -0.42841962 0.480424 0.0059540374 0.46389323 0.012591664 -0.24979141 -1.0527314 -0.12754811 -0.57773167 0.20529678 0.43211251 0.3504397 0.17491452 -0.48943126 0.318728 0.14609686 0.016686685 -0.17334637 -0.019470003 -1.9238134e-05 -0.3589386 0.18122947
like 0.48654723 -0.09607089 -0.64050484 0.23157246 0.0132376645 -0.5217736 0.06981149 -0.10105414 0.0063830516 0.3867072 0.6527206 -0.29256862 0.47006226 0.15718937 0.4425311 0.21246219 -0.12322283 0.2368356 -0.23562086 -0.19099344 -0.51378924 -0.31877223 0.39698482 -0.61799175 0.6374772 0.81745994 0.87036663 0.19423941 0.7938141 -0.3396674 0.4218147 0.22939196 -0.093088195 0.03602928 0.5691107 0.13094436 -0.3971786 -0.14517029 -0.3784697 -0.57516056 -0.7015408 -0.11527251 0.046112258 0.069088474 0.36416158 -0.59557533 0.02941253 0.08690301 -0.16891067 0.26263976 0.030913584 -0.53366566 -0.7736394 0.13473044 0.20061858 0.1432892 -0.1960036 0.3797009 0.05408707 0.30442968 -0.07989876 0.75831395 0.43245265 0.6195839 0.3308081 0.25740004 -0.18322773 -0.112298205 0.6384519 -0.6049343 -0.17556064 -0.39113584 0.1552165 0.28993225 0.20116623 0.00082451146 0.082769275 -0.62775177 0.2232306 -0.23133865 -0.5246823 0.30416292 0.31179118 -0.43459108 -0.27948105 -0.4873467 -0.3306443 -0.36373118 -0.7814042 -0.004474458 0.010731548 -0.017217154 0.50892746 -0.478562 0.19289093 0.20271648 -0.4020562 0.16173087 -0.15741712 0.8887686
not 0.28109905 -0.16255552 -0.4542253 0.32442725 -0.11979166 -0.17833276 0.2644335 -0.21406068 -0.07273432 0.09922827 0.5508639 -0.19887146 0.25170782 0.22929202 0.4979052 -0.0013676535 -0.3745094 0.2657067 -0.19591679 -0.23044863 -0.3951917 -0.2941229 0.18906902 -0.40176672 0.675077 0.52102023 0.7733608 0.19881873 0.59352493 -0.2119883 0.3827804 -0.009443978 -0.16438183 0.19091351 0.6070874 0.062234834 -0.23348367 -0.08973202 -0.20117873 -0.46083805 -0.5418167 -0.09039279 0.3500654 0.2687312 0.3524521 -0.4838363 9.183214e-05 -0.05150319 -0.086565435 -0.022629224 0.00019693424 -0.82176214 -0.3978312 -0.019078668 0.10033731 0.2974761 -0.22624487 0.5502987 0.26681596 0.15429692 0.05226203 0.70720994 0.25224563 0.28197694 0.263308 0.0063011707 -0.29182658 -0.31143728 0.7066131 -0.50567204 -0.34725258 -0.5731998 0.12745605 0.20557745 0.403003 0.13434318 -0.014852379 -0.37859866 0.0044342494 -0.04865123 -0.05033801 0.58072305 0.00766926 -0.40013218 -0.47630385 -0.5854015 -0.4490461 -0.24194075 -0.4537865 -0.051492408 0.2211843 -0.10381547 0.40017265 -0.31558737 0.16643725 0.23227589 -0.54941493 0.27594647 -0.37951982 0.86335546
me -0.06564149 -0.31271577 -0.24716204 0.23221946 -0.0020879055 -0.25285143 0.21921326 -0.31193626 -0.08867987 0.23811896 0.30150574 -0.30288705 -0.08330066 0.1464808 0.23366028 -0.21929754 -0.02225548 0.30761003 -0.17835738 -0.037056696 -0.3812479 -0.17664032 0.04341981 -0.12554911 0.4178994 0.33500522 0.5557093 0.07101317 0.22032298 -0.13041961 0.22732195 -0.059037313 -0.08098712 0.03175551 0.1490806 -0.2645797 0.057597842 -0.17233509 0.05778651 -0.16827813 -0.595115 0.020904649 0.24339542 0.12167969 0.2857227 -0.44762874 -0.22028752 -0.34265766 0.06519201 -0.16858868 -0.038102005 -0.6461964 -0.011222199 -0.20224045 -0.08275425 0.08112525 -0.22785266 0.511195 0.30613706 0.16347098 0.16225156 0.78123456 0.25451973 0.07891192 0.3245811 -0.06999344 -0.270673 -0.31628314 0.8991475 -0.15715562 -0.48640308 -0.62927043 0.37879166 0.4339736 0.12278229 0.22732556 -0.017730707 -0.11259925 -0.10958522 0.1112416 -0.09218983 0.49315172 0.07483097 -0.2408674 -0.6596376 -0.41692996 -0.45554173 -0.23183814 -0.04538176 0.06674332 0.2249104 -0.36331716 0.29705232 -0.2165683 0.01309461 0.03498653 -0.11276787 0.10193114 -0.28650442 0.41107827
with -0.14206086 -0.09338396 -0.36852652 0.012706716 0.5700659 -0.8669702 -0.5405823 -0.27369472 -0.013576847 0.6040114 -0.27687266 -0.5814586 0.2924238 0.07640485 -0.011820698 0.14739005 0.39393732 0.49861836 -0.47274566 0.51154506 -0.701058 -0.104595475 0.24884899 0.18593585 0.5027574 0.7306172 0.63505965 0.109944604 0.35029274 -0.33045575 -0.09196343 0.5417264 0.23857175 0.14589548 0.12647028 -0.35944512 0.408411 -0.2723043 0.26277307 -0.046113107 -0.9652688 -0.42870316 0.04461061 -0.068335 -0.21802771 -0.615708 -0.08381304 -0.05735096 0.11824308 0.4453766 -0.45300242 0.06289311 0.24571608 0.09663923 -0.13057145 0.0061637033 -0.62235534 0.24691126 0.035089556 0.093735985 0.15342475 0.6621534 0.28822908 -0.037314318 0.33324647 -0.11609464 0.14764832 -0.26622656 0.52815455 -0.058685135 -0.49782532 -0.1163057 0.41223174 0.57180744 -0.19453406 0.24971762 -0.26814875 -0.3203579 -0.041188043 0.047984373 -0.4436188 0.003528681 0.5907345 -0.003132287 -0.756214 -0.23960541 -0.6699193 -0.1294489 -0.3173239 -0.15591106 -0.4088521 -0.3159603 -0.075801395 -0.3532688 0.27663282 -0.38222829 0.2678911 0.20854676 -0.23140934 0.19682
you 0.84675884 -0.19181442 -0.55187863 -0.41382128 0.01817648 -0.19796138 -0.037104137 -0.33966446 -0.08872362 0.3725363 0.37876487 -0.6984564 -0.17487434 -0.21676143 1.0607566 -0.13148212 -0.8990753 0.16027178 -0.2856687 -0.5379496 -0.57976454 -0.5479962 0.1596411 -0.030462962 0.70536184 0.5678358 0.75949156 0.19131078 0.23395655 -0.2820592 1.048517 -1.00099 -0.27946383 0.48840645 0.69978106 0.47752672 0.017852223 -0.40721616 0.07755308 -0.6297542 -0.797634 0.17836215 0.6717568 0.37824044 0.79620755 -0.054117292 -0.19150221 0.03781602 0.25516218 -0.21934757 0.23924734 -0.6371414 -0.6348819 -0.41315278 0.103532314 0.8370993 -0.68031913 0.79007953 0.9331329 0.18265772 0.44608554 1.2100058 -0.082390316 0.4069495 0.7253975 0.6404642 -0.4749587 -0.1662866 0.5176122 -0.060430717 -0.37175378 -0.8791211 -0.28907782 -0.2414861 0.18666409 -0.013655405 -0.22513992 -0.23368627 0.063623816 0.31585643 0.6596712 1.7877605 -0.26102832 -0.723428 -0.43644089 -0.3040868 0.1773883 -0.22555964 -0.41740668 0.13481633 0.88884705 0.27651277 0.33717957 0.021073421 0.4766983 0.30451074 -1.0031668 0.07331225 -0.6982685 1.1262548
t 0.9148798 0.14964758 -1.4672425 -0.032243572 -0.51193404 -0.0072579407 0.08845708 0.5131295 -0.987425 0.1975923 1.1276773 -0.87331945 0.11697753 0.18908994 1.3806036 0.18593818 -1.0329393 0.42336917 -0.9563649 -0.63223696 -0.9960673 -0.16036814 -0.112884454 -0.7219367 0.8921171 1.3679583 1.7245343 0.67501956 1.0572879 -0.88458675 1.708558 -0.8905974 -0.8408905 0.8302101 1.3464527 0.7885467 -0.13960475 -0.8129989 0.59086686 -1.4256305 -0.38315204 0.032623734 1.1468807 1.1585085 0.45258573 -0.3340075 -0.23884213 0.35362703 0.25022125 -0.68155867 0.4865067 -1.3250353 -1.1053774 -0.7659569 0.08294641 1.1456938 -0.531182 0.84553593 0.6233898 0.46706223 0.7668057 0.6317414 0.37385687 1.1707171 1.0933791 0.8334568 -0.7093731 0.24325632 0.42857382 -0.77838516 -0.6150175 -0.6828741 -0.4814773 -0.84591186 1.2013879 -0.386448 -0.8877462 0.1684236 0.020821726 0.2800771 0.29897082 1.6223704 -0.29662314 -0.1418089 -1.0602206 -0.21802895 -0.061775547 -0.04546982 0.09412402 0.52902704 1.2364988 0.91248053 0.05055233 0.20032302 0.7894388 0.33386692 -1.6562021 -0.25220552 -0.8801003 1.2869948
scent -0.21649079 -0.33802763 -0.28360108 0.19277273 0.30990428 -0.3973069 -0.02364077 -0.16173182 -0.12527773 0.20596114 0.09452708 -0.3282955 0.17082994 0.2578949 0.07658669 -0.10625953 0.18918708 0.5030371 -0.3956908 0.1265522 -0.44075617 -0.080112435 0.13342702 -0.10803709 0.38972187 0.47200477 0.5208207 0.14228265 0.4460356 -0.10406594 -0.014843262 0.42485967 0.0216787 0.12230501 0.11958183 -0.383346 0.25417274 -0.12280705 0.12545134 -0.21125782 -0.5865362 -0.12790401 0.12069751 0.15112656 -0.057378244 -0.4855738 -0.09280181 -0.20079999 0.028390009 0.13611448 -0.38597447 -0.39141074 0.26161498 -0.02772778 -0.18742768 -0.10314094 -0.11402516 0.44132543 0.10846602 0.042628825 0.05328234 0.6883257 0.29875967 -0.053820953 0.18678327 -0.23237602 -0.14828914 -0.417468 0.73121965 -0.33886898 -0.5194078 -0.27840176 0.31431267 0.42140466 0.026713336 0.21194658 -0.16713428 -0.18955237 -0.014172171 0.019554958 -0.40288883 0.034619283 0.31987512 -0.11133481 -0.61815906 -0.4165037 -0.69272715 -0.04768158 -0.22557041 -0.016429232 -0.16866031 -0.24347244 0.11644332 -0.36845434 0.10752679 -0.11499241 -0.02045588 0.30012867 -0.24047773 0.2769916
as 0.19882727 -0.17676714 -0.4201734 0.21167113 0.0042772135 -0.32134947 0.070410416 -0.20179668 -0.15093999 0.30859047 0.23071492 -0.2526142 0.15274687 0.25910133 0.20297158 0.055548053 -0.03137248 0.3498906 -0.31585145 -0.048286583 -0.3671615 -0.16658425 0.20508988 -0.22183241 0.6892685 0.48218098 0.6775856 0.06590583 0.4323419 -0.136655 0.36235395 0.09286987 -0.070501596 0.17179082 0.50946146 -0.10565894 -0.17885962 -0.2346582 -0.080288656 -0.32807788 -0.6126971 -0.023463797 0.19213867 0.26530308 0.25972804 -0.559916 -0.0026382625 0.019754991 0.055391777 0.055156056 0.013873632 -0.599578 -0.12630256 -0.07202385 -0.0096936915 0.13933215 -0.25780645 0.5371817 0.2063889 0.11151014 0.072355025 0.6719219 0.3176253 0.19738363 0.2559454 -0.0392302 -0.19272208 -0.3078135 0.76245236 -0.4515527 -0.38657945 -0.53935164 0.04378832 0.2513062 0.27671656 0.15429567 -0.16661364 -0.3510046 0.0012244477 0.025895724 -0.108416736 0.38934478 0.14633343 -0.37485474 -0.5509917 -0.35930592 -0.52331233 -0.11735537 -0.31638128 0.050254602 0.039703004 -0.25231668 0.30101335 -0.19007081 0.24001214 -0.025798602 -0.32655358 0.28207558 -0.27336532 0.6229361
fragrance 0.062235165 -0.24549983 -0.36904293 0.22650823 0.037033092 -0.37587073 0.05237253 -0.2087028 -0.10096848 0.34510517 0.20279638 -0.41320318 0.16390026 0.1675368 0.32377708 -0.0026444143 -0.19521521 0.27000713 -0.2526546 0.046709094 -0.36019775 -0.21204044 0.13838276 -0.2225414 0.46186358 0.38443115 0.64552724 0.118138455 0.5258681 -0.19496822 0.17067468 0.10521643 -0.06454643 0.055137236 0.39619213 -0.17671432 -0.072388805 -0.14984237 -0.05044423 -0.30864057 -0.60182625 -0.13425326 0.22166869 0.1598048 0.24477017 -0.43743423 -0.08550959 -0.113555536 0.028764803 0.021478675 -0.14399724 -0.3535005 -0.1446465 0.018611543 -0.13173164 0.18258867 -0.2872484 0.42065546 0.2087683 0.16406552 0.11116003 0.79930055 0.21526095 0.0862525 0.16655791 -0.09552756 -0.099450275 -0.3001676 0.65734726 -0.3340102 -0.40417662 -0.353367 0.3463216 0.42493093 0.047251627 0.10850578 0.0129261585 -0.30684972 -0.06866729 -0.149588 -0.19030309 0.2806621 0.3390315 -0.29228616 -0.47840068 -0.42189988 -0.54455924 -0.17500737 -0.27841341 -0.062767066 0.026440796 -0.20369285 0.27253786 -0.2915231 0.21174628 0.114045314 -0.24186972 0.25120074 -0.2805866 0.489826
very -0.37786594 -0.15516485 -0.52736646 0.38389844 0.60708344 -0.6894966 -0.1321579 -0.07083902 0.065406665 0.02362535 0.02423096 -0.25961253 0.67207676 0.29345614 0.1386055 0.19853048 0.29533315 0.6712787 -0.49674773 0.18655048 -0.60118955 -0.1539281 0.30648336 -0.28980568 0.5458117 0.8995576 0.6336152 0.17223252 0.6933828 -0.2505501 -0.14218514 0.97915405 0.20090753 0.16206369 -0.012438884 -0.40855503 0.39926562 -0.0060928822 0.055728752 -0.15518269 -0.86144745 -0.46477672 -0.0119864065 0.078807846 -0.38738516 -0.6924677 0.07170598 0.048575304 -0.07046153 0.5811726 -0.5817814 -0.38449448 0.1717726 0.24439023 -0.012559384 -0.1309086 -0.2538193 0.267199 -0.1462471 -0.009632149 -0.14166744 0.5838506 0.49158546 0.22196521 0.31304416 -0.38782874 -0.014684545 -0.37093657 0.51349473 -0.4681548 -0.47318923 -0.016644863 0.46601433 0.4101174 0.25569025 0.27366814 -0.08385826 -0.37664503 0.32864594 -0.043430284 -0.7752573 -0.31823298 0.44822526 0.035211742 -0.50335604 -0.5502772 -0.9018763 -0.19995031 -0.74655384 -0.17844841 -0.5654835 -0.15053537 -0.014716294 -0.7411359 0.103508264 -0.29954937 0.09173926 0.42194974 -0.13488151 0.40736103
so 0.2779179 -0.21451299 -0.4800588 0.20010741 -0.050442457 -0.28399146 0.13297336 -0.138991 -0.21122544 0.29988897 0.32814065 -0.2225008 0.107483305 0.15596528 0.33912817 -0.034639485 -0.23074558 0.2661926 -0.2110713 -0.19782305 -0.32217348 -0.13887142 0.20747389 -0.2699508 0.56501186 0.42547038 0.6823561 0.08133819 0.5222934 -0.06855585 0.33889544 -0.112942845 -0.10262353 0.2938387 0.5799183 -0.0015042883 -0.18845904 -0.1603097 -0.12935185 -0.37898904 -0.52089566 0.07056464 0.26970798 0.25761676 0.3697585 -0.43719265 0.024669766 -0.024460465 0.013114567 -0.0144468 -0.013823959 -0.64336497 -0.24131338 -0.14479809 -0.026722971 0.18260358 -0.23219992 0.6561109 0.333751 0.1896102 0.107825726 0.6755573 0.26673007 0.206972 0.2948735 0.04657177 -0.28518918 -0.2354411 0.7772329 -0.46432093 -0.33951318 -0.5056947 0.041117106 0.19758892 0.28095067 0.089212745 -0.12580024 -0.3798334 -0.0638051 -0.0224949 -0.06017536 0.57154644 0.049218636 -0.39509848 -0.46788287 -0.52686065 -0.4143456 -0.10228987 -0.3122545 0.12785003 0.2109218 -0.22436593 0.32228544 -0.2116967 0.21617146 0.09314984 -0.4788725 0.22557017 -0.36459827 0.7598128
smell 0.57810783 -0.0015428613 -0.43273878 0.038576126 -0.08866603 -0.37892017 -0.06682517 -0.1408888 -0.02198439 0.51066595 0.36509538 -0.39970505 0.1769631 0.08568856 0.46093965 0.1956642 -0.26951158 0.12254705 -0.26177374 -0.10426201 -0.47944894 -0.29712513 0.20048237 -0.21331796 0.5884826 0.63339704 0.82623404 0.14179762 0.40761232 -0.29883012 0.53541064 -0.15298924 -0.021601144 0.20624427 0.46902323 0.13294134 -0.24573657 -0.18416542 -0.21065888 -0.45666012 -0.76826954 -0.09319464 0.12383814 0.18831773 0.45766908 -0.44993803 -0.059404742 0.18129654 -0.016357463 -0.0020484347 0.16725323 -0.49966675 -0.49958912 0.05149712 0.20670731 0.43813372 -0.51244324 0.37662828 0.29001707 0.17270806 0.118437976 0.8128137 0.34788018 0.39448705 0.4354927 0.36159882 -0.13451545 -0.107220635 0.51358426 -0.29906082 -0.28153494 -0.57466114 0.10677247 0.19927353 0.0747571 0.039810963 0.051758442 -0.4413987 0.036610942 -0.09502257 -0.13518305 0.6629695 0.23011237 -0.5029028 -0.29320768 -0.35260463 -0.13899788 -0.3561094 -0.477885 0.035845857 0.23617676 -0.11002354 0.32533807 -0.14918631 0.4024978 0.05896878 -0.31681818 0.13145462 -0.27668408 0.7123541
was 0.3198134 -0.46356973 -0.30152795 0.06812292 -0.17641747 -0.18605337 0.15004942 -0.22134613 -0.23739661 0.7156206 0.21569271 -0.41265032 -0.25577262 0.25463212 0.033464763 -0.19682822 0.12737791 0.29029793 -0.18600556 0.026482165 -0.33047748 0.12942779 0.15861882 -0.016838867 0.5149365 0.1545376 0.7410259 -0.056223784 0.31719565 0.019277925 0.17497353 -0.20520107 -0.22206831 0.039164513 0.60220677 -0.22686064 -0.28434986 -0.29943734 -0.09439425 -0.44221005 -0.38455787 0.16065322 0.1415505 0.23111853 0.5634679 -0.4752543 -0.19476321 -0.2879811 0.16315205 -0.14093892 -0.027845193 -0.4424371 0.054642238 -0.24587357 -0.29032403 0.010403925 -0.11890794 0.7374124 0.45284402 0.27216402 0.2902156 0.7103149 0.18118316 -0.13258958 0.108208515 -0.0043537435 -0.27146843 -0.26899236 1.2108462 -0.40943345 -0.44453606 -0.695332 0.13916087 0.42140582 -0.09765163 0.15911318 -0.245245 -0.39800292 -0.43767956 -0.07329262 0.046732567 0.48522586 0.24495691 -0.40207228 -0.7467663 -0.47162217 -0.37859228 0.11758383 0.12432279 0.22276409 0.20032358 -0.500632 0.35184225 0.04904341 0.30631402 0.0047119744 -0.2483467 0.24265017 -0.28250673 0.44316664
one 0.033283733 -0.27121595 -0.22892725 0.15597345 -0.06231419 -0.24628323 -0.0019381638 -0.34331515 -0.1898558 0.5250449 0.10663552 -0.49458057 -0.12917393 0.1487717 0.20049088 -0.13354869 -0.21361984 0.19169508 -0.21057296 0.16432227 -0.20331466 -0.11032008 0.047905385 -0.05887927 0.35489696 0.14801852 0.58332676 0.11936903 0.3228251 -0.12185292 0.057311263 -0.13641755 -0.03448595 0.009298206 0.43331718 -0.33874783 -0.07660864 -0.22926952 0.03225516 -0.23517938 -0.54537755 0.013431199 0.21023598 0.14563912 0.3290315 -0.37995476 -0.17422652 -0.26400673 0.10716446 -0.2656511 -0.10374949 -0.25112024 0.035238054 -0.12071811 -0.27524456 0.14581276 -0.28132308 0.47618136 0.3388299 0.19228856 0.2875656 0.8266847 0.13144414 -0.16185762 0.14936334 -0.11526134 -0.12251218 -0.3233416 0.88088864 -0.11372542 -0.45035636 -0.5106366 0.38132727 0.60959774 -0.114026435 0.06943979 -0.047244627 -0.19881925 -0.3395454 -0.057790186 -0.004277165 0.35908818 0.25473443 -0.30135116 -0.61375195 -0.34862745 -0.52293795 -0.036666322 0.07009824 0.045211785 0.19268577 -0.38137874 0.32599753 -0.10579167 0.24705532 0.18663003 -0.20810725 0.15406403 -0.35884127 0.34013537
be 0.4193762 -0.300513 -0.3583107 0.068065524 -0.32811534 -0.17586134 0.2752812 -0.30062568 -0.2807742 0.3396625 0.4833042 -0.36254156 -0.06765243 0.03824341 0.616652 -0.1518776 -0.5206188 0.17068274 -0.21802281 -0.2689915 -0.5009078 -0.27161896 0.06654431 -0.19352515 0.7012931 0.3655974 0.814741 0.17880121 0.32438737 -0.10805545 0.75254196 -0.55057126 -0.24512032 0.25979927 0.7210839 0.23100898 -0.21851616 -0.28305852 -0.05216479 -0.4153882 -0.5516012 0.047290277 0.5194778 0.33673728 0.56618166 -0.33074838 -0.11713186 -0.027931202 0.057509825 -0.21373454 0.16129896 -0.7985768 -0.35088757 -0.35934177 0.02649636 0.56502056 -0.41282505 0.70757985 0.5237626 0.26047224 0.24883267 0.7433678 0.089842886 0.34618726 0.28694475 0.35083959 -0.3352004 -0.2144223 0.7349538 -0.42137954 -0.30511257 -0.791461 0.076240815 0.098640576 0.30563164 0.046457577 -0.12802632 -0.37738308 -0.11855183 0.09860944 0.3296456 1.1742274 -0.0846308 -0.547688 -0.6598252 -0.44327173 -0.14822014 -0.076329745 -0.08164232 -0.040653586 0.6949527 -0.012399405 0.33268535 -0.008665841 0.25370887 0.14307874 -0.6927579 0.18548164 -0.4262312 0.9304578
have 0.55128103 -0.31420368 -0.44274986 0.037220888 -0.31230232 -0.26176417 0.15511629 -0.20134367 -0.49826494 0.6606175 0.25248918 -0.377148 -0.32068956 0.050287955 0.34137288 -0.11302871 -0.37934425 0.10876347 -0.15943262 -0.24470758 -0.2673232 0.0025623075 0.18563844 -0.12425969 0.5334719 0.16717926 0.7805199 -0.0013762349 0.39851633 0.06035527 0.6294104 -0.6742962 -0.33354104 0.2936148 0.82696396 0.04936451 -0.34096938 -0.28581065 -0.12313333 -0.5008535 -0.42083624 0.30812415 0.33825704 0.3554075 0.8059239 -0.3228674 -0.10801284 -0.045683794 0.13546038 -0.29122937 0.16839366 -0.5360459 -0.26779065 -0.343371 -0.17904446 0.3299685 -0.3081478 0.84997225 0.70519686 0.3424614 0.3255981 0.6919594 0.11023212 0.102374054 0.26838386 0.28831103 -0.23721495 -0.13852076 1.0341556 -0.48455116 -0.33621252 -0.70258343 -0.15427426 0.168187 0.037639454 -0.019576646 -0.24885713 -0.354707 -0.35935843 -0.04861983 0.2676707 1.0156635 0.028096972 -0.56454754 -0.5588113 -0.45643085 -0.1926465 0.0646669 0.039949562 0.27651772 0.5554642 -0.2819154 0.36727628 0.11298544 0.39967448 0.13177666 -0.6400361 0.18036582 -0.4220757 0.73607194
more -0.17014956 -0.10273707 -0.31002733 0.3248037 0.38983515 -0.52360886 -0.17189023 -0.20071273 -0.004410287 0.2723842 0.11123889 -0.22706774 0.4883904 0.059913028 0.09234393 0.055170547 0.17284366 0.34825623 -0.35195112 0.15938324 -0.6245822 -0.25551918 0.16234434 -0.10066437 0.52100796 0.73836935 0.62487155 0.19120173 0.42671433 -0.30380395 0.026686372 0.41211322 0.14647436 0.2697825 0.21208991 -0.11981713 0.27467257 -0.22530974 0.029886315 -0.004749298 -0.78367215 -0.24037983 0.13571797 0.019050142 -0.05616279 -0.582448 -0.00027670976 0.029850518 0.022566427 0.20954484 -0.28207496 -0.42538023 0.030384474 -0.062699 0.000747227 0.097044155 -0.45597455 0.3789732 -0.025990224 0.110588156 -0.0021842876 0.49515337 0.42911828 0.14889517 0.4525226 -0.036724195 -0.030516021 -0.24623579 0.5402153 -0.13573606 -0.51133573 -0.23910731 0.3323418 0.35721737 0.23630889 0.25035134 -0.11945091 -0.3097669 0.09715816 0.057220787 -0.47013623 0.11002964 0.26176852 -0.15604515 -0.636812 -0.3971099 -0.55543387 -0.21069892 -0.3995226 -0.15544474 -0.07262006 -0.18698207 0.10586555 -0.39808446 0.12294326 -0.1947711 0.019406226 0.2210631 -0.35067552 0.46344873
just 0.27753866 -0.2722545 -0.40467614 0.14402692 -0.008204864 -0.30985725 0.10993154 -0.1960082 -0.1400984 0.34145632 0.39861688 -0.26655433 0.07787435 0.17679879 0.305467 -0.030104714 -0.1473221 0.26015675 -0.2317588 -0.18759724 -0.38322705 -0.1746334 0.21713258 -0.21939713 0.5757823 0.42712232 0.65391576 0.09038771 0.43399027 -0.13875341 0.34127322 -0.037976693 -0.10309333 0.22242294 0.49145547 -0.0064240135 -0.15541852 -0.13998553 -0.16938949 -0.41359252 -0.55289286 0.052466776 0.19094843 0.19128652 0.36637855 -0.46361482 -0.027683634 -0.07464445 0.0059858025 -0.015980769 0.0005062673 -0.6109821 -0.25884214 -0.122101724 0.04451004 0.13219424 -0.18690972 0.5822392 0.3259579 0.15760902 0.07956019 0.7499482 0.2692905 0.1957024 0.30200016 0.10338712 -0.25523835 -0.2591805 0.8178035 -0.41946012 -0.34104678 -0.5733739 0.06958354 0.27660322 0.18732366 0.09994542 -0.10957797 -0.37665936 -0.056138188 -0.01597017 -0.13375294 0.5599672 0.082830064 -0.41643327 -0.4759486 -0.47968873 -0.38643277 -0.1814016 -0.33035737 0.09530076 0.15461063 -0.24578096 0.3613338 -0.22787417 0.19638555 0.07790786 -0.34604928 0.14515775 -0.322379 0.7144965
or 0.04252677 -0.22758543 -0.34061122 -0.049323667 0.28329888 -0.477498 -0.24921244 -0.2338487 -0.1603388 0.36446524 -0.043329462 -0.3941884 0.004224368 0.04114364 0.23916936 -0.0787668 -0.007693015 0.32188013 -0.32418478 0.055184215 -0.4457496 -0.14847805 0.11403883 0.10699056 0.48011315 0.48358876 0.5120838 0.13044931 0.2257386 -0.10207742 0.23712513 -0.029946126 -0.047036108 0.30217645 0.27063262 -0.14189869 0.27769172 -0.22819771 0.20980628 -0.2526657 -0.6828452 -0.045322012 0.25270668 0.14665921 0.16923971 -0.4030109 -0.11227392 -0.12775405 0.15577878 0.06862864 -0.21933217 -0.27420413 0.08892867 -0.20805007 -0.08567748 0.16221337 -0.4563496 0.59369224 0.35516483 0.11522793 0.24136245 0.6922172 0.19802526 -0.038611975 0.44906005 0.006284272 -0.1323572 -0.24371439 0.6582156 -0.11207778 -0.49424964 -0.42799115 0.0623037 0.25878936 0.046538927 0.19403721 -0.24591525 -0.17730704 -0.114567205 0.13757886 -0.058861323 0.5611485 0.101369135 -0.2162726 -0.60466886 -0.3395223 -0.46831396 -0.106699534 -0.17257082 0.101243846 0.09122594 -0.23126735 0.1325528 -0.14629212 0.21899827 -0.11148185 -0.18723992 0.18106388 -0.41739362 0.43982437
can 0.7049919 -0.22450328 -0.62265134 0.07189899 -0.3618568 -0.37652594 0.04863785 -0.021952242 -0.4540247 0.4749479 0.29597914 -0.102302015 -0.17755091 0.13708003 0.48188275 0.1484887 -0.5810079 0.050931886 -0.014667837 -0.5922151 0.074302584 -0.10281731 0.22241421 -0.18885799 0.6847873 0.18576866 0.76068866 -0.18883798 0.5672035 0.2899976 0.7412834 -0.5364519 -0.39267308 0.4408659 0.8683137 0.12706982 -0.43986484 -0.20476791 -0.30850992 -0.7958541 -0.57889116 0.5285052 0.16021599 0.39147988 1.1408296 -0.44299567 0.0172933 0.20450243 0.071712084 -0.13174255 0.22510605 -0.65139294 -0.42148027 -0.33409423 -0.09445269 0.28401235 -0.3002969 1.2760555 0.8360459 0.26016435 0.16972835 0.8973698 0.39746583 0.11210494 0.5084492 0.24374707 -0.2945568 -0.06308295 1.1140851 -0.79414517 -0.547067 -0.7945122 -0.50870275 -0.07640111 0.14369535 0.054432463 -0.10977522 -0.5710113 -0.1791253 -0.25033352 0.14470991 1.1003318 -0.1727072 -0.984285 -0.011938754 -0.73771363 -0.27548158 -0.12121139 -0.36097756 0.46578544 0.5319923 -0.5078262 0.56811357 -0.011200667 0.538505 0.16449952 -0.84229034 0.26662257 -0.45641938 1.1343511
at 0.24268948 -0.38513535 -0.3075231 -0.10528277 0.10098187 -0.30065888 -0.16646451 -0.17734653 -0.2936828 0.46136147 -0.1238316 -0.48450598 -0.35042867 0.20558149 0.20332965 -0.20273763 -0.0270178 0.3834579 -0.24283637 0.12387697 -0.22093096 -0.017547162 0.040632308 0.16872226 0.46369672 0.29460737 0.57767546 0.0663357 0.038074303 0.08532684 0.24708477 -0.27540836 -0.19461513 0.2805592 0.45482427 -0.2875601 0.14240478 -0.37660986 0.31262204 -0.5062387 -0.5512365 0.078992896 0.23677143 0.23329324 0.35476905 -0.36331463 -0.16193737 -0.2605106 0.2275893 -0.11117037 -0.15573688 -0.21820492 0.18427394 -0.3189163 -0.2727754 0.016981607 -0.2872517 0.8287997 0.53921735 0.13645367 0.40085253 0.7503287 0.036372464 -0.31623352 0.39198914 -0.022780886 -0.21841112 -0.23379093 1.0220612 -0.056948368 -0.53268546 -0.6689309 -0.0061709126 0.1691885 -0.049301438 0.18548365 -0.32965472 -0.13905285 -0.34383246 0.15871306 0.19601436 0.62766105 -0.016849376 -0.29649958 -0.57314247 -0.3451385 -0.43612573 0.031168912 0.17747404 0.3804238 0.24634986 -0.41933942 0.26363367 0.15802056 0.2996878 0.0037904703 -0.2755978 0.19485289 -0.47812656 0.26464236
an -0.24394982 -0.25981984 -0.34815037 0.19187425 0.35315382 -0.53099316 -0.11981859 -0.24452917 -0.13502374 0.33447823 -0.04449464 -0.37411404 0.14028423 0.11929174 0.18381941 -0.08692974 0.05177879 0.38192037 -0.3120336 0.11235646 -0.4361592 -0.11863294 0.15269846 0.004851037 0.4608322 0.451011 0.55921274 0.15195814 0.35243165 -0.07625907 -0.043666143 0.22686198 0.0708669 0.22634225 0.19546524 -0.26842093 0.33464044 -0.11231817 0.17162672 -0.12950523 -0.66322017 -0.14916807 0.22540502 0.14361385 0.025424786 -0.46944878 -0.04774785 -0.19971703 0.1041662 0.09463633 -0.41379127 -0.30492914 0.20922196 -0.14374617 -0.14761181 0.09771135 -0.40644476 0.5422928 0.23820652 0.09652225 0.15266486 0.60563976 0.24793689 -0.056928538 0.35317093 -0.21246597 -0.08006995 -0.2772311 0.73675424 -0.16436036 -0.4808138 -0.33947712 0.3025196 0.50995064 0.11005169 0.19525535 -0.16727234 -0.181442 -0.09728207 0.059380982 -0.24054813 0.27325314 0.18172224 -0.08013041 -0.7024383 -0.49466604 -0.62826383 -0.08202932 -0.22595395 -0.04263419 -0.08233721 -0.31977746 0.077104196 -0.29470697 0.15892592 -0.14033413 -0.07259771 0.24791157 -0.3835356 0.38892293
all 0.2714624 -0.06703746 -0.31847882 -0.03284594 0.05725596 -0.3397309 -0.13639998 -0.2442775 -0.13276042 0.50885516 -0.032686017 -0.4592305 -0.10704956 0.13189967 0.2812491 -0.00015455889 -0.11028745 0.18731438 -0.20269051 0.13375111 -0.2912642 -0.12621257 0.1599861 0.06250643 0.43337163 0.43296975 0.6663016 0.09306454 0.18917237 -0.12802963 0.28384036 -0.2343158 -0.07316284 0.1781511 0.3937284 -0.203677 -0.008673053 -0.22577956 0.074189305 -0.35106844 -0.65082216 0.01065029 0.19556968 0.1727034 0.35418656 -0.4282082 -0.13766488 -0.13538134 0.10716464 -0.10418483 -0.046646904 -0.22363798 -0.071638316 -0.07854884 -0.11236538 0.24366666 -0.51165265 0.49398315 0.34139088 0.15927166 0.31148326 0.72562444 0.19219555 -0.007928516 0.4077357 0.037204836 -0.08624449 -0.17990543 0.7342022 -0.008157421 -0.378399 -0.54460907 0.036496952 0.31945655 -0.0207101 0.14998361 -0.1624699 -0.21322002 -0.22453007 0.101152204 0.06549543 0.50558454 0.08973709 -0.3051615 -0.4690963 -0.29048637 -0.38098216 -0.16867574 -0.13840866 0.21316211 0.18553038 -0.40135896 0.2599025 -0.026303686 0.3149497 0.03323373 -0.22640663 0.1392888 -0.429495 0.34610438
if 0.68762165 -0.2875192 -0.49600053 -0.10550713 -0.17088425 -0.28699142 -0.009648557 -0.18431935 -0.5646184 0.50274277 0.35232425 -0.35902512 -0.29014188 0.05796147 0.640771 -0.008501717 -0.73113424 0.13450584 -0.21320705 -0.46323174 -0.25797606 -0.26302138 0.24820176 -0.18043399 0.68576866 0.25997415 0.75211906 0.11496241 0.47269318 0.011260867 0.95633835 -0.8272922 -0.4103748 0.55656594 0.9372055 0.2414677 -0.21318151 -0.14083281 -0.16341737 -0.6634294 -0.5578568 0.42784384 0.4134325 0.425733 0.9115229 -0.322935 -0.032856915 0.11380298 0.07573858 -0.38085404 0.24964026 -0.64338857 -0.51074964 -0.31785008 0.0024935463 0.5260923 -0.41412404 0.9673054 0.910179 0.29897925 0.27253103 0.99733114 0.08855343 0.1618366 0.47606364 0.5653781 -0.32463053 -0.15122776 0.9232259 -0.5548246 -0.3605477 -0.862105 -0.40092215 0.021555841 0.16459376 -0.121895574 -0.3177602 -0.3351701 -0.2694014 -0.01871129 0.2269726 1.4464505 -0.109842 -0.76236963 -0.3096919 -0.49849692 -0.1656712 -0.124503724 -0.3443823 0.30432984 0.6628501 -0.11668469 0.5053253 0.022436826 0.44728708 0.3253525 -0.8970314 0.08520493 -0.5603199 1.155201
from 0.060022257 -0.22894476 -0.31412187 -0.073699534 0.27772796 -0.6064918 -0.35043025 -0.30624667 -0.19880848 0.62341255 -0.17280138 -0.5787225 -0.093870334 0.109794915 0.1046575 -0.071490556 0.1070998 0.3668271 -0.34776965 0.3548098 -0.44716707 -0.053464863 0.10864851 0.21285124 0.47796822 0.44281474 0.62844753 0.10276568 0.18044372 -0.16057369 0.06212731 0.06245611 0.049388032 0.18675743 0.3601656 -0.29168057 0.22326358 -0.34714565 0.28707242 -0.26368967 -0.7332081 -0.15021864 0.19231771 0.086569235 0.08980786 -0.4530726 -0.16059743 -0.20175254 0.19934072 0.10674957 -0.24606669 -0.030992309 0.20197722 -0.13794914 -0.21964864 0.0455945 -0.4863991 0.51937646 0.2997813 0.14158632 0.34071413 0.7418582 0.14526066 -0.1860013 0.34714198 -0.05460252 -0.020809358 -0.2297902 0.78823155 -0.028325912 -0.4900482 -0.37508297 0.23431468 0.4418376 -0.11322552 0.16163632 -0.3222807 -0.21268448 -0.2880501 0.12030402 -0.06358423 0.36229706 0.3197483 -0.15665953 -0.73610055 -0.28650916 -0.5527986 -0.041808173 0.0016564297 0.06913629 0.010866246 -0.34229782 0.11341222 -0.09435541 0.298132 -0.15531065 -0.040455263 0.12221206 -0.38169253 0.23580481
love 0.4906492 -0.2713896 -0.40723684 0.18666974 -0.29570165 -0.17695838 0.24785124 -0.14877777 -0.2483487 0.5510281 0.40544024 -0.30647346 -0.080498375 0.18327376 0.2675577 -0.030788034 -0.22857627 0.117188044 -0.09874518 -0.2006685 -0.25325477 -0.030507375 0.25096747 -0.3037489 0.5338758 0.21196221 0.8091497 -0.010930509 0.5362099 -0.0128198955 0.3454949 -0.2677418 -0.2467091 0.10620726 0.7198924 0.0078122066 -0.5000385 -0.19355786 -0.33246687 -0.53071535 -0.37743598 0.19274561 0.15638383 0.23987271 0.684074 -0.43143383 -0.06857792 -0.021972818 0.01065866 -0.1306687 0.10063142 -0.5545183 -0.32999465 -0.08310114 -0.14776477 0.19115448 -0.16301161 0.63907933 0.4390991 0.27238238 0.13851565 0.6605876 0.23230909 0.1902248 0.1458502 0.15439479 -0.23193663 -0.20151162 0.9815634 -0.57808626 -0.30778077 -0.6179549 0.05125006 0.30528295 0.008708437 0.003924933 -0.046622712 -0.47607937 -0.23997767 -0.20559292 -0.031408038 0.54370636 0.23041779 -0.5664098 -0.44415215 -0.5465985 -0.2500834 -0.017269012 -0.20495889 0.112089455 0.27170005 -0.32923052 0.4076359 -0.08888074 0.34884477 0.18123499 -0.44124773 0.2650829 -0.23658663 0.6763997
are 0.23292744 0.16263616 -0.5562059 0.034257114 0.4293504 -0.7670216 -0.6099903 -0.19864064 -0.10921865 0.62555265 -0.41848513 -0.39291552 0.33579051 -0.119927265 0.2915583 0.37154803 0.0057216496 0.18577604 -0.30366302 0.26634443 -0.53565454 -0.11847366 0.36035934 0.06170126 0.4834343 0.7513367 0.70737696 0.03623816 0.5239089 -0.19415034 0.36454198 0.014473712 0.12732542 0.25535846 0.27157038 -0.1679102 0.22532098 -0.2120691 0.057355434 -0.081588656 -0.9436187 -0.21768446 0.052555278 -0.0141042825 0.23508957 -0.44512293 -0.070899636 0.32093394 0.050305866 0.43849313 -0.28956497 0.16008319 -0.17363913 0.057614625 -0.07167027 0.45613676 -0.8707686 0.40555412 0.25335276 0.24713415 0.16286337 0.5890361 0.2649652 0.16301745 0.60340554 0.19501792 0.10401069 -0.07111538 0.37456676 -0.04322655 -0.35415336 -0.17798051 0.06376849 0.26580265 -0.14328685 0.22459304 -0.1810281 -0.39661786 0.027035901 0.089038126 -0.14279892 0.5432969 0.3619028 -0.2795409 -0.32112157 -0.2022967 -0.34161884 -0.07183374 -0.46462107 -0.035673097 -0.011491245 -0.100112505 0.014261018 -0.24399231 0.47372895 -0.18599904 -0.15266629 0.37577164 -0.24004713 0.48084572
notes 0.25638193 0.41904673 -0.58742124 0.04540489 0.54532737 -1.0069622 -0.779238 -0.24588558 0.24555728 0.71485645 -0.35936272 -0.6234652 0.6180213 -0.10856386 0.3341581 0.4904674 0.12708625 0.21638334 -0.39052352 0.58675444 -0.74360466 -0.3998582 0.3262559 0.11331234 0.5719921 1.0916946 0.8944126 0.17078304 0.444454 -0.5694462 0.16625147 0.33237898 0.36041963 0.15855913 0.17240815 -0.12084774 0.19090945 -0.34640473 0.15142198 0.023576463 -1.3028437 -0.5619333 0.06538725 -0.09553012 -0.069608785 -0.636475 -0.08381809 0.2611494 0.04354493 0.5755464 -0.2485116 0.19136786 -0.27012667 0.36350942 0.1373621 0.48001158 -1.183462 -0.0439855 -0.057621147 0.16488965 0.12159661 0.7292465 0.4249384 0.30093193 0.6622045 0.16101107 0.28586647 -0.047842298 0.04792777 0.21525156 -0.33488956 -0.05031659 0.35205597 0.45066455 -0.15401475 0.2538985 -0.010380596 -0.39766386 0.12857045 0.036863428 -0.38335383 0.13999349 0.6236747 -0.16119145 -0.38982654 -0.10213427 -0.38341615 -0.46179664 -0.7271106 -0.20919895 -0.30410144 -0.21389574 -0.015169832 -0.37978977 0.4231665 -0.32806963 0.2067199 0.13293438 -0.34650677 0.2596364
fresh -0.19273037 -0.048975505 -0.5758843 0.36185315 0.73837745 -0.8519721 -0.2423741 -0.17444715 0.25898504 0.26298264 0.12814403 -0.41378048 0.81024426 0.18141833 0.22596322 0.29369098 0.24793698 0.5106385 -0.53051436 0.14489059 -0.77318263 -0.31447104 0.4243414 -0.30330136 0.5993469 1.0229425 0.7533323 0.22517371 0.79078764 -0.45764887 -0.08043912 0.9824704 0.3410138 0.16368301 -0.013349763 -0.28510055 0.34261873 0.040618002 -0.14273246 -0.15067369 -1.07329 -0.5212818 -0.07420196 -0.052910347 -0.36365455 -0.78012997 0.061461966 0.122039676 -0.17088132 0.6313672 -0.5380904 -0.31728116 -0.13570866 0.42836645 0.20770682 -0.023411872 -0.50750357 0.07340471 -0.19885953 0.032656506 -0.27298567 0.7819809 0.519157 0.40596128 0.35992667 -0.17081633 0.058157127 -0.3385212 0.37952238 -0.34168175 -0.33318484 -0.0015060959 0.5704259 0.62322456 0.102326825 0.27144876 0.07332135 -0.5359814 0.38814017 -0.11964277 -0.8853977 -0.317181 0.5684042 -0.015492705 -0.41368356 -0.50003177 -0.7720486 -0.41720107 -1.0812701 -0.2851865 -0.68342143 -0.09675147 0.0337677 -0.8864899 0.16355765 -0.2569022 0.23051341 0.30367848 -0.15763056 0.50300896
smells 0.24601717 -0.15762413 -0.3382725 0.25496414 0.15876319 -0.28335115 0.041778237 -0.2193921 0.31572768 0.3323186 0.6592102 -0.36197302 0.57129073 0.34125492 0.22971323 0.2604646 0.16058339 0.22031285 -0.4498715 -0.046914645 -0.70990103 -0.35152033 0.23581176 -0.29989624 0.74878687 0.8126627 0.69959885 0.22827415 0.48843297 -0.4983831 0.1688767 0.59705794 0.17318612 -0.013040813 0.18748623 0.004805729 -0.21143797 -0.050317336 -0.34007597 -0.36938125 -0.76409006 -0.41812167 -0.08516333 0.0319542 0.07033319 -0.5571579 0.04142953 0.22587317 -0.098470666 0.2814354 -0.03699787 -0.6423482 -0.3415518 0.19459337 0.41851667 0.2077087 -0.20410399 0.27001214 -0.015825478 0.037047584 -0.11321262 0.8419355 0.51867527 0.2897027 0.3108813 0.103919886 -0.27126694 -0.33325958 0.58394516 -0.4604869 -0.31975886 -0.48061463 0.49937022 0.49149716 0.21559887 0.27887863 0.12555344 -0.5293774 0.23667748 -0.2381622 -0.540447 0.24356905 0.4474484 -0.37622342 -0.46547258 -0.44193473 -0.35501814 -0.33143386 -0.6631109 -0.22592613 -0.23054057 0.010919644 0.25456288 -0.40361646 0.28922954 -0.07814548 -0.07692233 0.21361434 -0.024647394 0.81142217
when 0.45806232 -0.4992943 -0.34509796 -0.039905142 -0.24754252 -0.16264683 0.16516638 -0.26957163 -0.50585943 0.65353394 0.3062475 -0.3907798 -0.5147652 0.1738733 0.25657856 -0.30106613 -0.27549055 0.24131924 -0.16103575 -0.22681499 -0.20989655 0.022135762 0.16750994 -0.038531676 0.5311471 0.033199854 0.74583274 0.05753595 0.26715636 0.13892896 0.45784044 -0.68472815 -0.39364785 0.35161936 0.85811543 -0.069871716 -0.2674058 -0.2700237 -0.07601284 -0.5970605 -0.35625437 0.436353 0.36538306 0.38434565 0.78333753 -0.39975154 -0.13021173 -0.33812997 0.14983366 -0.46068183 0.07281209 -0.62083983 -0.099842355 -0.40748316 -0.23655185 0.15139401 -0.18790315 1.0034988 0.7755093 0.3155773 0.3981714 0.8802059 0.06014329 -0.14337742 0.24123164 0.19953123 -0.3800516 -0.24938788 1.366891 -0.43393266 -0.4336921 -0.89683217 -0.13244231 0.30266717 0.012809131 0.019327909 -0.34894103 -0.33087245 -0.56698304 0.033665728 0.26252735 0.9904361 -0.03022108 -0.56237894 -0.7353762 -0.5666057 -0.3297674 0.049967922 0.11433291 0.3952504 0.5327126 -0.50843024 0.45394698 0.17551918 0.30964968 0.20262888 -0.56641006 0.1316196 -0.5496594 0.7076628
bottle 0.1255182 -0.5183917 -0.19542186 -0.093722105 -0.049382437 -0.3091225 0.10567772 -0.3609853 -0.3504202 0.548435 0.12288264 -0.47146022 -0.3865622 0.09569691 0.12652628 -0.4081136 -0.083039686 0.3436388 -0.20390491 0.03961565 -0.29316205 0.05608766 0.006908766 0.21253844 0.41218454 0.06356136 0.4477113 0.034161776 0.07707309 -0.02419514 0.1637746 -0.32439062 -0.15790847 0.21126589 0.5253919 -0.1799751 0.0486565 -0.31901616 0.20386395 -0.28793442 -0.43077 0.14136373 0.2925724 0.16996847 0.34220004 -0.34021795 -0.20709945 -0.47580084 0.24644867 -0.26713413 -0.03637154 -0.4039578 0.17003575 -0.42371395 -0.28293034 -0.0917248 -0.1449275 0.6828369 0.5069465 0.17728001 0.34524566 0.85043 -0.008216689 -0.1849653 0.14046337 -0.038596958 -0.21491434 -0.29485446 1.0438107 -0.13000733 -0.49979052 -0.61867625 0.13547163 0.3652354 -0.057868127 0.08494601 -0.36531934 -0.11940601 -0.4203319 0.14389004 0.18482588 0.5809005 0.06513347 -0.24645875 -0.8131878 -0.35256925 -0.50357586 0.015442582 0.29500848 0.20971657 0.27959102 -0.49488205 0.25371572 0.02615275 0.19983786 0.025662472 -0.16382685 0.012409897 -0.45880187 0.35251054
perfume 0.1699184 -0.31288224 -0.3455573 0.21688779 -0.061553944 -0.28799257 0.13604389 -0.21322574 -0.1292756 0.37793237 0.29509625 -0.3988648 0.07158288 0.19887477 0.31472543 -0.054609504 -0.23854826 0.23959303 -0.21668753 -0.03449172 -0.32386497 -0.17847684 0.12822023 -0.2510308 0.5005467 0.31037334 0.65822667 0.09803816 0.5240786 -0.15730128 0.20751871 -0.0033631627 -0.12030935 0.050071675 0.5013184 -0.14188376 -0.18641049 -0.16956095 -0.12561175 -0.3784416 -0.5233553 -0.024860268 0.23083505 0.17429373 0.36641067 -0.41639087 -0.092401184 -0.13778213 0.041119404 -0.055739213 -0.059306 -0.44333157 -0.17962986 -0.04024921 -0.13362148 0.16789202 -0.18677932 0.5030688 0.27486488 0.19412859 0.12452304 0.822038 0.18839274 0.066503786 0.14075972 -0.048902534 -0.16875562 -0.29789343 0.772026 -0.3924799 -0.37849897 -0.4561571 0.27678064 0.4061826 0.042406876 0.08999699 -0.02027621 -0.33196816 -0.11748574 -0.1683573 -0.111030966 0.38044095 0.30338523 -0.3664895 -0.4858839 -0.45300573 -0.49517196 -0.12758017 -0.21992235 -0.012825413 0.1217494 -0.21742582 0.35348505 -0.22793157 0.23474173 0.1699384 -0.32076687 0.22079128 -0.2881727 0.5678671
tobacco -0.04704317 0.3088303 -0.4892859 0.22508869 0.5495255 -1.1200478 -0.6855673 -0.30516323 0.2309765 0.57096136 -0.19273911 -0.5514879 0.6790313 0.06455423 0.1947144 0.515088 0.16484031 0.3356905 -0.31459248 0.6031103 -0.76947737 -0.40469024 0.32902753 -0.036453236 0.61455184 1.0622983 0.87604624 0.20308472 0.55138284 -0.58090174 -0.08208633 0.75330037 0.3916299 0.054275908 0.16440468 -0.20518549 0.2745528 -0.2387359 0.05477261 0.038445868 -1.2792482 -0.66554993 -0.009604127 -0.16967687 -0.2153672 -0.80212617 -0.052020807 0.12426656 0.024265595 0.5464761 -0.34177527 0.059736505 -0.17665565 0.44932958 0.11164282 0.27062955 -0.91855943 -0.09989693 -0.25897843 0.14954458 -0.016630447 0.6399845 0.5075434 0.37232548 0.5080909 0.0030350403 0.40315846 -0.118035085 0.12419537 -4.3970107e-05 -0.38316315 -0.07880185 0.54915 0.6192164 -0.15947863 0.15756266 0.07628821 -0.47211367 0.20834179 -0.11982389 -0.6829969 -0.19243702 0.70910275 -0.06803096 -0.50665265 -0.2958021 -0.6478208 -0.520148 -0.7660178 -0.38891 -0.5332837 -0.31025746 0.044039328 -0.6091903 0.36174604 -0.32109603 0.37459338 0.18799996 -0.17052138 0.3077132
get 0.5176515 -0.03213676 -0.5357567 -0.03861986 -0.14914398 -0.4894698 -0.18017954 0.04505294 -0.45848852 0.6288129 0.0161003 -0.3030778 -0.14932016 -0.027689395 0.2994488 0.1285483 -0.2570191 0.1629168 -0.147987 -0.094988964 -0.26239142 0.028089797 0.19044714 -0.049539883 0.43815643 0.40921536 0.7844651 -0.037451997 0.42420298 0.049379013 0.55659 -0.4200593 -0.24866107 0.3951933 0.5993499 0.058474258 -0.18618633 -0.28540066 -0.017829834 -0.46551922 -0.5587248 0.21508169 0.14426327 0.28988752 0.64459145 -0.43976504 -0.09076164 0.13048448 0.09691575 -0.090570524 0.10428757 -0.2971696 -0.27638054 -0.16314985 -0.14447498 0.27230024 -0.46421582 0.63273 0.5109603 0.27556646 0.25642845 0.52231675 0.3256401 0.2405653 0.4614472 0.34208122 -0.0570271 0.062518835 0.6743761 -0.4174159 -0.3892824 -0.48757556 -0.2467299 -0.023917 -0.06701707 -0.078708835 -0.22657885 -0.34126505 -0.1773192 -0.07523205 -0.047215015 0.7091473 0.11864778 -0.46404225 -0.29612854 -0.40617716 -0.176243 -0.060333863 -0.18355268 0.30095857 0.35615945 -0.31274477 0.20738542 0.023613648 0.46630338 -0.018255293 -0.37261418 0.16543806 -0.34290966 0.54869574
there 0.003498494 0.07281629 -0.48219737 0.4080609 0.2828577 -0.6081927 -0.1452006 -0.22592872 0.025308097 0.12475343 0.04060197 -0.19770004 0.52183205 0.025128152 0.385193 0.15260622 -0.2392387 0.28538108 -0.17564411 0.12481736 -0.43923995 -0.4031907 0.24363677 -0.25681597 0.5289055 0.74601334 0.6965882 0.20859833 0.57959574 -0.26250762 0.088221036 0.27201504 0.11704503 0.2301909 0.2591621 -0.09832545 0.08961465 -0.061694924 -0.012928976 -0.04181879 -0.86388516 -0.23898159 0.24988024 0.07470529 0.037653133 -0.5303531 0.060210735 0.030445961 -0.08076459 0.22014254 -0.21515173 -0.45884734 -0.3055939 0.19750482 0.1542335 0.25814044 -0.56195724 0.2293379 0.035150778 0.11469306 -0.059630886 0.6431486 0.36946878 0.25983575 0.49087858 -0.09883454 -0.0004102805 -0.19090031 0.37605324 -0.14151368 -0.30471557 -0.23015736 0.29898915 0.35589135 0.30623665 0.22541967 0.09935903 -0.3017269 0.14231686 0.048819758 -0.39026895 0.22579677 0.14866717 -0.20401688 -0.34483576 -0.5188546 -0.6135704 -0.41787905 -0.65797675 -0.11814808 -0.073965386 -0.22690122 0.20085585 -0.50992686 0.05851194 -0.0148309395 -0.119615875 0.25009677 -0.42715663 0.5483226
has 0.016333511 -0.24763523 -0.40171236 0.25014105 0.18293756 -0.4740611 -0.0405222 -0.23738943 -0.009539259 0.4058161 0.15596874 -0.4618157 0.32800987 0.3367824 -0.021802805 0.13259605 0.3605402 0.41430467 -0.43248218 0.21381712 -0.58414125 -0.078487486 0.2419872 -0.1344726 0.6337458 0.638472 0.6561696 0.08167808 0.50075376 -0.33666065 0.047833018 0.5669316 0.054921634 -0.07449166 0.2948319 -0.28599593 -0.009952586 -0.25109518 -0.0022234067 -0.26719922 -0.67232877 -0.35019812 0.037200347 0.054324392 -0.037514053 -0.5202162 -0.07010275 0.012324157 0.025310267 0.37435964 -0.25638586 -0.27378207 0.09424725 0.054794505 -0.062019046 -0.014476863 -0.14504872 0.38977748 0.028868204 0.10529173 0.04046746 0.5562297 0.30248213 0.04095599 0.14759213 -0.16663513 -0.100253545 -0.34963995 0.71073633 -0.39154276 -0.42491776 -0.26106203 0.38888866 0.49306595 0.057771698 0.28647786 -0.16415305 -0.4135085 0.013690668 -0.08856664 -0.39164945 -0.0025673495 0.50318635 -0.14298917 -0.6713812 -0.29599306 -0.5978333 -0.02867161 -0.21779758 -0.12792382 -0.3103751 -0.16939802 0.1420379 -0.28440621 0.24704549 -0.206307 -0.075287506 0.2794646 -0.084421396 0.37954688
really 0.4077149 -0.19487134 -0.5664239 0.22538339 -0.16831699 -0.29094657 0.17085095 -0.059807807 -0.2119863 0.25594008 0.46583518 -0.25441834 0.14730205 0.1939083 0.49843207 0.07892475 -0.39564618 0.20623308 -0.19817746 -0.30568668 -0.32920107 -0.19760083 0.21398896 -0.3738059 0.62169886 0.4894975 0.81348854 0.09760321 0.62228775 -0.08785133 0.4350004 -0.07939853 -0.19618233 0.26469034 0.6088794 0.07453142 -0.31573734 -0.1346328 -0.20708066 -0.59866047 -0.5354349 0.06291155 0.2194689 0.30971858 0.5364126 -0.44534475 0.029291758 0.11117509 -0.022987442 -0.020915532 0.03596344 -0.7088789 -0.43031654 -0.08433272 0.05466368 0.27695623 -0.21829036 0.70838463 0.39727768 0.2023886 0.096773505 0.77159065 0.3602988 0.3137729 0.3543006 0.09533394 -0.30607808 -0.19200867 0.80059206 -0.64860964 -0.3724633 -0.54854447 0.05655161 0.14767122 0.28618574 0.043779314 -0.030203836 -0.44491857 0.0024535602 -0.17907473 -0.13270022 0.63897306 0.07514502 -0.5323412 -0.3442747 -0.63977414 -0.38140845 -0.17437924 -0.43641242 0.12402278 0.2521474 -0.16710296 0.36852312 -0.24281302 0.32525238 0.17227732 -0.58554137 0.25125417 -0.30934536 0.91548735
what 0.4141897 -0.19299176 -0.49845046 0.23847635 -0.2259823 -0.27491406 0.18238561 -0.14019899 -0.27646703 0.28126 0.4166945 -0.2452221 0.019839734 0.1324276 0.5789103 -0.0029481056 -0.6195375 0.1285349 -0.108890824 -0.3001814 -0.23778166 -0.27701804 0.14029503 -0.3373258 0.5782302 0.37056294 0.7944956 0.13119519 0.5702137 -0.059439097 0.47740528 -0.35380372 -0.24816257 0.31151006 0.7208175 0.08731796 -0.30190644 -0.13557407 -0.16991383 -0.5454987 -0.53434896 0.14254095 0.36134937 0.3430159 0.6353379 -0.40373546 -0.020033374 -0.002626775 -0.010707117 -0.21847473 0.09702397 -0.70158315 -0.486357 -0.1252859 0.00984291 0.35224938 -0.31077853 0.7218249 0.4637773 0.24873222 0.17777242 0.83655787 0.2663934 0.2470922 0.3730888 0.12809202 -0.28188667 -0.14367098 0.8203973 -0.48952588 -0.3578467 -0.6463154 0.0285435 0.17220323 0.29377323 -0.012370593 -0.0063734595 -0.3633766 -0.117879614 -0.12358537 0.013811614 0.7960887 -0.03889741 -0.54984975 -0.37202471 -0.6338689 -0.38345614 -0.2334845 -0.35603064 0.13325582 0.46694267 -0.22176975 0.446095 -0.16195266 0.29863298 0.28293747 -0.65982217 0.19444661 -0.47211677 0.92003834
green -0.1076181 0.12068685 -0.6052516 0.26785293 0.8268195 -1.1092026 -0.5677603 -0.21983546 0.33048195 0.5206697 -0.08746386 -0.5381332 0.91595984 0.09253603 0.17340758 0.40235204 0.39513314 0.52498955 -0.55104303 0.43697092 -0.84873945 -0.31370434 0.45260233 -0.15446122 0.57410526 1.1969144 0.81946486 0.24190734 0.7191248 -0.59086823 -0.12934548 1.0256656 0.48004028 0.13716555 -0.0052146614 -0.2764482 0.3940462 -0.06883841 -0.03385837 -0.016451476 -1.2792943 -0.7277289 -0.107177146 -0.19135712 -0.45224598 -0.7858592 0.031159854 0.17139019 -0.10676348 0.79318845 -0.5493696 -0.012518483 -0.12233405 0.4648364 0.1801885 0.07985981 -0.7864031 -0.09024105 -0.3062307 0.1034652 -0.14721721 0.7716819 0.5512424 0.38431454 0.46930882 -0.12212786 0.23604642 -0.25254953 0.23217182 -0.13150387 -0.37919143 0.11273483 0.64110434 0.6757038 -0.0067938496 0.23289242 0.074436955 -0.5344999 0.3426712 -0.09128621 -0.89347947 -0.37471935 0.76996636 0.022986813 -0.5061021 -0.3576341 -0.7317045 -0.48411745 -1.0390526 -0.3423022 -0.7121805 -0.13629673 -0.050242785 -0.80976456 0.24484974 -0.3924803 0.38963196 0.26949024 -0.18942367 0.3550532
would 0.53030735 -0.34300148 -0.43276554 0.14573134 -0.32551494 -0.13698995 0.23114905 -0.2268889 -0.38228515 0.5310213 0.55337614 -0.35009792 -0.109425806 0.12415502 0.416363 -0.057576407 -0.45609766 0.0626315 -0.22172977 -0.43013048 -0.21343704 -0.120597854 0.16441068 -0.3033506 0.66130114 0.14252016 0.7990028 0.021337425 0.59395564 -0.05139592 0.5490825 -0.5099097 -0.364703 0.22544397 0.8826702 0.11270751 -0.37951374 -0.23593158 -0.33748502 -0.6571788 -0.395798 0.3662464 0.3553693 0.338107 0.8628239 -0.3606871 -0.04692487 -0.030842911 0.08330048 -0.3055281 0.1472991 -0.7139936 -0.36775768 -0.34803614 -0.16995524 0.35008162 -0.25249204 0.9487369 0.72862303 0.32738465 0.20359221 0.83975154 0.17046428 0.08342659 0.30541003 0.26421964 -0.32863525 -0.23236926 1.1262585 -0.6268181 -0.4454973 -0.722339 -0.1465166 0.21991396 0.15502393 0.07963912 -0.16976497 -0.38936114 -0.3161175 -0.16041806 0.2014652 0.96353155 0.04822461 -0.729827 -0.4541502 -0.58475345 -0.22356535 -0.031338118 -0.16303891 0.19529375 0.5071119 -0.24885637 0.50712043 -0.035689585 0.36280134 0.2273905 -0.7416576 0.22571886 -0.48819876 0.9521991
skin -0.5884076 -0.7174538 0.1800949 -0.23808973 0.5011596 -0.056416824 0.036406264 -0.33030316 -0.40324804 0.09899067 0.054001357 -0.25503138 -0.5315294 0.30513224 -0.5309618 -0.6146643 0.747206 0.8722917 -0.3725815 0.29606318 -0.41198757 0.21829179 -0.039056167 0.3677777 0.26333022 0.19863196 0.24279536 0.02855828 -0.23435819 0.05088527 -0.15782331 0.2799927 0.13020425 0.24596153 -0.14324522 -0.80675435 0.81430924 -0.37499523 0.5427576 0.10482034 -0.56244355 0.3186103 0.043465488 0.054263636 -0.33028123 -0.50382215 -0.26461375 -0.7481217 0.2640802 -0.32551387 -0.29958254 -0.5327562 1.1161582 -0.6483923 -0.34840074 -0.70386535 0.2383179 0.66211915 0.26598427 -0.044175267 0.35565755 0.67033947 0.103589766 -0.39165324 0.3354794 -0.24100985 -0.4467009 -0.596899 1.3083493 0.13125879 -0.8051605 -0.6870336 0.14059474 0.35909176 -0.008827219 0.21479297 -0.7678116 0.29265925 -0.3179569 0.6285072 -0.11142697 0.233943 -0.17354313 0.04599678 -1.2193425 -0.21409963 -0.77474445 0.25833377 0.4565455 0.28971788 0.09100272 -0.52928966 0.09295643 -0.15643959 -0.1858684 -0.35967642 0.3353337 0.014014944 -0.34962815 -0.04130266
sweet -0.29635704 0.14758606 -0.4929358 0.3730261 0.7667423 -1.0986853 -0.59678686 -0.2878485 0.31819046 0.4757297 -0.038352314 -0.5383888 0.9184622 0.20156069 0.04510989 0.44229686 0.5725532 0.6139489 -0.5362702 0.58708364 -0.93773854 -0.37060463 0.3824747 -0.15825164 0.7156996 1.2404552 0.8857507 0.25844124 0.6339625 -0.68570024 -0.15500239 1.1894323 0.47152734 0.07528823 -0.011696534 -0.35453048 0.42779186 -0.19166791 0.019208698 0.07640873 -1.3297389 -0.7592379 -0.046738084 -0.17192693 -0.5179387 -0.9689725 -0.076786436 0.06235118 -0.036716916 0.7378676 -0.5395044 -0.12159298 0.0169471 0.4417498 0.15620713 0.043741424 -0.76223147 -0.102187715 -0.4139907 0.09747995 -0.17036355 0.67324126 0.5953942 0.34783262 0.47989005 -0.13997404 0.25728735 -0.3094725 0.25378287 -0.11725915 -0.51945025 -0.06268132 0.66022617 0.7861559 -0.0069601918 0.35448465 0.02587175 -0.50786406 0.30334654 -0.040680137 -0.97934175 -0.4244537 0.7941689 0.05514125 -0.7014601 -0.318568 -0.838658 -0.50816107 -0.9193905 -0.4365456 -0.7640533 -0.24936214 0.025324188 -0.799438 0.18249759 -0.46457765 0.5127611 0.2309407 -0.1665426 0.31597137
10 -1.417999 -1.1579043 -0.6272832 -0.088213235 1.2243952 -0.75595623 -0.2368193 0.23578668 -1.469213 -0.3092776 -1.1810876 -0.33755443 -0.6740653 0.019572955 0.016193172 -1.0178517 0.18282895 1.4963696 -0.6996592 0.15902257 -0.38131914 0.79594356 -0.073970415 0.65175635 0.049263734 0.3483021 0.36306214 0.10359045 0.61592567 1.2283889 -0.61791193 0.40280008 -0.39046076 1.0912663 -0.15292369 -1.1754117 2.0436528 -0.18434432 1.6341369 -0.53634757 -0.3637987 0.3062766 0.44801888 0.6990542 -0.3441048 -0.32942075 -0.09477487 -0.5799667 0.45467296 0.22342628 -1.8752131 -0.17055143 2.0867584 -1.11961 -1.4743109 -0.7352054 0.04732633 2.11896 1.2067703 -0.13185023 0.8433071 0.45536458 0.14146788 -1.0385938 0.7310011 -1.2658793 -0.39448234 -0.60084075 2.0352216 -0.6656987 -1.5484871 0.06025468 0.11976581 -0.17556605 0.12219573 0.26172706 -1.410131 0.46164876 -0.48432207 0.56440616 -0.31421807 0.36475235 -0.26458013 0.39091468 -1.5479455 -1.3774998 -1.7259402 1.2546455 0.642546 0.6025892 0.055265594 -0.40741298 -0.8029058 -0.5665222 0.38129878 -0.5517514 -0.44231692 1.0936426 -0.828538 0.04979422
out 0.165931 -0.1881929 -0.3599804 -0.044251006 0.15700565 -0.47360831 -0.21753967 -0.21306485 -0.1989988 0.5507133 -0.090682365 -0.4348175 -0.05854134 0.049978215 0.21270937 -0.03700889 0.005673423 0.28505456 -0.25893945 0.10790372 -0.3869775 -0.025577566 0.14561762 0.120615944 0.39245316 0.4324209 0.59515613 0.07856193 0.26000914 -0.070538744 0.22013919 -0.108857796 0.00074151845 0.25006357 0.2922852 -0.17363764 0.1567996 -0.25530115 0.15373436 -0.288965 -0.64375246 -0.05252144 0.14761473 0.1471338 0.27707148 -0.35535768 -0.1339292 -0.07973567 0.12420508 0.057206143 -0.19792156 -0.152224 0.067667335 -0.17608626 -0.17925516 0.17063542 -0.4477608 0.56986487 0.37837866 0.14489287 0.2820812 0.6786215 0.19104086 -0.045988046 0.384589 0.026646206 -0.08804713 -0.1942198 0.74638397 -0.095428616 -0.44492298 -0.4146618 0.14313592 0.30748925 -0.07307953 0.12621984 -0.22773252 -0.23610783 -0.20811525 0.0861183 -0.032339558 0.515841 0.1846095 -0.24370667 -0.5549957 -0.34141538 -0.384906 -0.033041596 -0.073317446 0.14308594 0.1352503 -0.3132847 0.10430291 -0.07006204 0.33441946 -0.1019317 -0.17928076 0.18310319 -0.35411203 0.36266047
about -0.17655182 -0.49081817 -0.37963405 0.04776772 0.17945841 -0.26039347 0.0073497826 -0.047319397 -0.5291992 0.14712836 -0.14578918 -0.24341016 -0.25892735 0.10659959 0.18319394 -0.347828 -0.12470841 0.4892913 -0.23190637 -0.04799341 -0.23535883 0.14621875 0.0020494575 0.13622622 0.33129194 0.21512899 0.46138838 0.036999978 0.32514864 0.30664122 0.027849266 -0.12079157 -0.220405 0.41452208 0.34003833 -0.30150422 0.40841708 -0.22731994 0.4487822 -0.36301145 -0.3353817 0.17589623 0.33404267 0.34569645 0.24230255 -0.24950014 -0.061576325 -0.23782854 0.1980705 -0.071072385 -0.47183156 -0.34083414 0.49387857 -0.48676214 -0.46779218 -0.005219543 -0.113564104 1.0465986 0.5988765 0.10534691 0.38455126 0.48017198 0.12119275 -0.31585962 0.3599637 -0.32748756 -0.360562 -0.2559884 1.0344229 -0.33535397 -0.64483774 -0.36481458 0.025079792 0.026381087 0.17826758 0.14270854 -0.47710016 -0.0232773 -0.30399284 0.1911802 0.07309626 0.57503617 -0.1486571 -0.13296874 -0.7287348 -0.63393116 -0.61561805 0.35549176 0.21906404 0.28844413 0.30388007 -0.24229324 -0.0020727653 -0.0643212 0.25029373 -0.07521263 -0.46207526 0.41229478 -0.45804474 0.40553126
m 0.4572305 -0.39284667 -0.5569314 0.20557037 -0.3338655 -0.19812496 0.30461937 0.0015887977 -0.53762466 0.60946965 0.2975429 -0.1502563 -0.27933082 0.068330705 0.27027622 -0.18404569 -0.3127274 0.15154578 -0.022619395 -0.35899663 -0.14879592 0.18489902 0.23346147 -0.25928938 0.49897018 0.07898943 0.91206545 -0.11573194 0.6235187 0.2609249 0.3618254 -0.54901844 -0.4130722 0.3487044 0.8603375 -0.0065759 -0.4441163 -0.17645434 -0.29478773 -0.58574146 -0.2408826 0.45406777 0.26478472 0.42073414 0.9312687 -0.4806212 -0.047129456 -0.1417193 0.072815515 -0.2950782 -0.0027174877 -0.71527135 -0.21916309 -0.3273509 -0.3598946 0.15793298 -0.16928203 0.9765403 0.715398 0.37695125 0.24215038 0.5472762 0.26373142 0.12696911 0.22036877 0.1012031 -0.29695135 -0.1442338 1.2743413 -0.7214717 -0.42523372 -0.71114737 -0.19113556 0.16371559 0.061882116 -0.0050253896 -0.20185427 -0.4275563 -0.4328799 -0.19103667 0.111937515 0.74816906 -0.026333904 -0.581643 -0.5671195 -0.77513975 -0.31493053 0.18366416 -0.06403223 0.35399172 0.46322972 -0.5046323 0.38302472 -0.035311367 0.36978567 0.1270288 -0.58303046 0.38212582 -0.4071451 0.75628376
good -0.3016347 -0.44668844 -0.3901683 0.28017876 0.25931823 -0.2524322 0.18076214 -0.049999107 -0.3038628 -0.14180659 0.13608049 -0.106514685 0.09658679 0.20480911 0.24831516 -0.22410807 -0.07037414 0.5353218 -0.2502065 -0.1547189 -0.2571292 -0.0027203867 0.13123776 -0.16967963 0.36930478 0.40333706 0.42349002 0.10699129 0.5272478 0.16058245 0.0010989103 0.30515093 -0.16616529 0.23936254 0.16159019 -0.31377104 0.34460577 -0.0033013069 0.1858684 -0.30944967 -0.3669328 0.045025397 0.18953998 0.26507744 0.050076682 -0.37224972 0.007916754 -0.19075437 0.021008521 0.07688809 -0.44447193 -0.53626174 0.2665398 -0.21656597 -0.22797103 -0.15043423 0.06844662 0.7398096 0.28740257 0.051580958 0.07664828 0.5652824 0.24014595 -0.02797365 0.28201315 -0.3652357 -0.31622002 -0.321169 0.8929059 -0.4911798 -0.5192728 -0.26716784 0.14515139 0.13133834 0.30208132 0.15259382 -0.2649676 -0.09427405 0.021912316 0.07890426 -0.2782455 0.20671771 -0.065499686 -0.09822443 -0.5314226 -0.6483199 -0.7434499 0.07928447 -0.23146155 0.13996729 0.021589333 -0.17634898 0.09450491 -0.43846112 0.04759107 0.022186302 -0.3358706 0.40589437 -0.31409568 0.49666852
don 1.0285473 -0.21950664 -0.78033113 -0.049887717 -0.5884429 -0.52878934 0.04650494 0.061291557 -0.42323446 0.30210373 0.2251331 0.050818786 -0.2791535 0.15016235 0.8292856 0.24291188 -1.0109905 -0.04398208 0.24575162 -0.9235501 0.30020753 -0.32296044 0.12478292 0.04435221 0.8790657 0.2472692 0.72835433 -0.3814614 0.37762475 0.6070964 1.0800025 -0.75265825 -0.40852982 0.7676861 0.9272082 0.36835644 -0.64367497 -0.29588875 -0.20129733 -1.0105839 -0.8678875 0.65340734 0.14885476 0.5112125 1.5820831 -0.44931903 0.05563858 0.46443394 0.1737949 -0.03726232 0.4365742 -0.8654923 -0.6098404 -0.55064124 0.21517877 0.42906016 -0.4178304 1.8321778 1.0608326 0.14428592 0.24256875 1.2749424 0.6344881 0.21123804 0.82358295 0.19897158 -0.42324296 0.030447513 1.1266241 -0.8796441 -0.7325797 -1.1222402 -0.75051725 -0.44990158 0.27693498 0.09041033 0.0938654 -0.77412313 0.00859453 -0.32459614 0.3678774 1.6913989 -0.5801702 -1.4625334 0.3432009 -1.0017455 -0.33585617 -0.36427528 -0.46416506 0.7165361 0.8391689 -0.7803586 0.71209115 0.12923141 0.7287943 0.23128721 -1.1084429 0.25739655 -0.5855704 1.6402061
vanilla -0.14633857 0.23579752 -0.42541754 0.21229017 0.663851 -1.1413882 -0.71208215 -0.33234414 0.26486918 0.6188626 -0.20055588 -0.64455307 0.7149128 0.07628752 0.076190576 0.41957557 0.40988082 0.4760631 -0.47028914 0.697892 -0.8801913 -0.36945933 0.30356276 0.0008677213 0.63476866 1.0946499 0.84308493 0.23096047 0.48468003 -0.6792575 -0.148773 0.9176937 0.45570248 0.059197225 0.03806849 -0.30370387 0.38092205 -0.27561697 0.12993468 0.087417744 -1.3232969 -0.74327385 -0.0112509355 -0.21730211 -0.40551594 -0.8225873 -0.111970425 0.031352684 0.045363136 0.6461235 -0.46426013 0.088277265 -0.025646692 0.4394162 0.10342541 0.14551929 -0.9248926 -0.12875606 -0.30413914 0.11783431 -0.012869073 0.6964636 0.47521988 0.28103787 0.5100731 -0.048551414 0.3511768 -0.19486444 0.20056137 0.07045318 -0.46768692 -0.046155136 0.6413449 0.761547 -0.1754325 0.2678998 0.0032259133 -0.4322467 0.1755264 -0.036215745 -0.7821989 -0.2716037 0.8338726 0.036245037 -0.6535328 -0.21730006 -0.7298928 -0.49095368 -0.74869925 -0.44492248 -0.6453861 -0.2648958 -0.021969866 -0.6079792 0.28871328 -0.41546753 0.5095386 0.16329084 -0.19958828 0.21732076
after -0.33945855 -0.60875535 -0.1857907 -0.13533598 0.45216465 -0.38123372 -0.16051015 -0.17181078 -0.46533963 0.32517558 -0.28013673 -0.34194657 -0.3755111 0.1755434 -0.17382568 -0.44396886 0.38692632 0.67903924 -0.3635989 0.22061533 -0.35977685 0.23180261 0.029828804 0.33843866 0.27167603 0.26007885 0.35717964 0.06130585 0.10527893 0.20634262 -0.13073862 0.09329884 -0.06589393 0.37341905 0.13508645 -0.5403862 0.6625562 -0.3040423 0.5679561 -0.19679655 -0.47038704 0.16166976 0.19094379 0.21469057 -0.03717584 -0.36649558 -0.16445178 -0.4697986 0.22274466 -0.031789333 -0.54948664 -0.21764505 0.8175213 -0.44675484 -0.51207066 -0.3224955 -0.05215081 0.8635599 0.45112813 0.05312318 0.37784678 0.54391325 0.11800232 -0.45826668 0.31457338 -0.30565125 -0.29079077 -0.38035378 1.1421406 -0.12482799 -0.7097554 -0.4151287 0.06967634 0.2523428 -0.061761554 0.19897334 -0.64388883 0.04922848 -0.34816563 0.3310692 -0.12457196 0.30340645 0.024228303 0.039846055 -0.97408545 -0.4180223 -0.7419889 0.34478182 0.30533955 0.3099616 0.027211122 -0.41762757 -0.03471407 -0.061616775 0.15734465 -0.3095747 -0.03467533 0.29629278 -0.41725177 0.05837781
by 0.07390957 -0.12528571 -0.3646436 0.06225439 0.23587494 -0.6530091 -0.3386028 -0.304705 -0.14654234 0.5619585 -0.094607435 -0.5041288 0.08080371 0.08665709 0.19066861 0.037268452 -0.010838054 0.32115838 -0.3109314 0.29111958 -0.47378123 -0.17968357 0.13380586 0.0549492 0.5286678 0.51367795 0.71576345 0.14208256 0.30809844 -0.2436941 0.120256156 0.090950675 0.06041233 0.20586522 0.39398134 -0.20378186 0.1581359 -0.2844473 0.17322773 -0.20600371 -0.8065742 -0.16412853 0.2416934 0.069959 0.115370095 -0.5260773 -0.10861463 -0.14267392 0.1266705 0.09153571 -0.21302438 -0.15382208 0.0377181 -0.047175925 -0.1216246 0.16479756 -0.6145456 0.45141467 0.22536485 0.17443047 0.24304347 0.75961626 0.22667845 -0.03756354 0.38435557 -0.020162428 0.01424919 -0.20860438 0.67521393 -0.084246285 -0.45340806 -0.36466235 0.25067303 0.46773222 -0.027172223 0.16549599 -0.18043901 -0.27684507 -0.20456748 0.045046683 -0.12257902 0.34547916 0.30640826 -0.20037809 -0.6534755 -0.32103541 -0.5514645 -0.17980589 -0.20200263 -0.009147285 0.011001521 -0.3396868 0.15807597 -0.18790257 0.25654158 -0.11219598 -0.0724477 0.14269745 -0.40762386 0.3426438
wear 0.51575935 -0.4376201 -0.43903562 0.04943692 -0.36619547 -0.047847692 0.38155416 -0.18839677 -0.31456974 0.37674358 0.5327754 -0.32591742 -0.21685939 0.19238944 0.50747216 -0.1829791 -0.37657946 0.17861538 -0.1971549 -0.43149146 -0.35875675 -0.13123299 0.16837406 -0.2588021 0.64200485 0.24138494 0.8028421 0.06435607 0.39419448 0.005233063 0.6799109 -0.5620541 -0.36596942 0.2531369 0.72508174 0.1280883 -0.3660262 -0.24467626 -0.19677615 -0.6529213 -0.4027321 0.27444538 0.3644578 0.41215128 0.76644146 -0.3229615 -0.103718184 -0.07058368 0.053202715 -0.2717355 0.17056422 -0.83098876 -0.31934527 -0.36102197 -0.053033907 0.36800808 -0.1355393 0.8942061 0.6598466 0.25165278 0.22730815 0.8164928 0.18758298 0.21482432 0.24963087 0.28481686 -0.45653275 -0.2827337 1.076535 -0.5913942 -0.39287865 -0.8598704 -0.08209626 0.11101136 0.23665899 0.06396612 -0.16513073 -0.40957993 -0.20504336 -0.01314236 0.22594765 1.0722378 -0.05719965 -0.6180371 -0.5575475 -0.5572769 -0.2087171 -0.028730936 -0.07193656 0.23347275 0.56946164 -0.21620224 0.42970654 0.02779858 0.28993085 0.18656288 -0.7342328 0.20736355 -0.37456065 0.9000652
first 0.13756455 -0.4937302 -0.16549642 -0.110970736 -0.02414164 -0.16186328 0.063547544 -0.25615206 -0.3835577 0.5240078 -0.027988335 -0.44465575 -0.52765745 0.20179737 0.08415179 -0.37149596 -0.071282186 0.35712907 -0.1666504 0.09131744 -0.22212344 0.093933806 0.03781143 0.2074088 0.36347908 0.0654656 0.5407765 0.01802633 0.061564565 0.12922779 0.11485623 -0.39510566 -0.22485624 0.22403502 0.49597055 -0.31703365 0.08440747 -0.28841263 0.2333283 -0.42242432 -0.35807207 0.23414227 0.29617777 0.26595423 0.46841463 -0.33783737 -0.20620602 -0.44350442 0.24886517 -0.32659587 -0.114273064 -0.31926537 0.31751445 -0.3839741 -0.37377194 -0.02475195 -0.17086929 0.83629036 0.5842838 0.1748746 0.482673 0.73234916 0.010728546 -0.32940117 0.26214215 -0.12124822 -0.27237236 -0.27631038 1.1663355 -0.11979252 -0.48545977 -0.663861 0.01345058 0.29561162 -0.074183136 0.09130692 -0.39484015 -0.1065463 -0.5320765 0.16117296 0.22693726 0.6035605 -0.009164177 -0.2918832 -0.7601939 -0.45051658 -0.4749779 0.13619238 0.29815477 0.33616135 0.35485476 -0.48957196 0.27188304 0.10646905 0.2521536 0.06546499 -0.30653176 0.19003065 -0.48100352 0.27449808
its -0.13901095 -0.16934001 -0.4289517 0.21567683 0.37803555 -0.6120078 -0.19625357 -0.21767561 -0.074367106 0.32278404 0.021673573 -0.3818887 0.30618545 0.13808553 0.22321087 0.02119609 0.08739707 0.44129798 -0.3776676 0.17013693 -0.5275161 -0.17358682 0.18331446 -0.07336934 0.55012196 0.6569121 0.6646918 0.16054568 0.44364145 -0.1967439 0.08212822 0.3744157 0.0827686 0.21447507 0.22612584 -0.25359622 0.279668 -0.15747876 0.14286771 -0.18285172 -0.788576 -0.24171431 0.17782345 0.11626818 -0.031917315 -0.57224005 -0.06976576 -0.08669433 0.08622945 0.21827461 -0.34775746 -0.3217247 0.0849456 -0.018924741 -0.07476152 0.08193343 -0.46884823 0.4539525 0.13060392 0.11096987 0.10065121 0.6830115 0.33971897 0.08479622 0.41075426 -0.16090043 -0.0704417 -0.27500692 0.6490598 -0.2291871 -0.49429545 -0.28700814 0.31629992 0.4281655 0.15674007 0.2212719 -0.14075784 -0.26597214 0.017711576 0.040243946 -0.33555755 0.18681113 0.25787756 -0.107626356 -0.63630646 -0.4514199 -0.6770373 -0.16846341 -0.38573125 -0.0694275 -0.14919406 -0.258465 0.09898748 -0.38036236 0.19406842 -0.17044476 -0.058612395 0.2592287 -0.34399298 0.43694243
which -0.06853185 -0.065266065 -0.3776451 0.23559265 0.25814864 -0.6412912 -0.22286525 -0.2639063 -0.094802946 0.42353848 0.04646908 -0.4065321 0.26184016 0.06836171 0.25346288 0.038816847 -0.07928405 0.31271154 -0.28517252 0.2230626 -0.46699253 -0.23316899 0.15295406 -0.0992775 0.48710322 0.5848168 0.71191376 0.1831768 0.41236842 -0.25620744 0.04288239 0.22562778 0.0897707 0.2130204 0.31077275 -0.19961138 0.14331901 -0.16219515 0.06794556 -0.12387459 -0.8008214 -0.19056378 0.21565913 0.07357769 0.047302857 -0.5896557 -0.06298365 -0.14048854 0.05780998 0.060584567 -0.23959632 -0.3173997 -0.046917837 0.044016544 -0.04572921 0.13366607 -0.57524323 0.32476157 0.09974876 0.17494373 0.123476624 0.70205134 0.324848 0.13491158 0.40239027 -0.07197705 0.028986327 -0.19580421 0.60935664 -0.15130271 -0.4333252 -0.3197912 0.34290951 0.5055857 0.083217256 0.10629202 -0.05034124 -0.24656224 -0.076583974 0.005311289 -0.2994714 0.19257937 0.28038177 -0.1404119 -0.6088427 -0.43807694 -0.5892691 -0.27424684 -0.38820842 -0.0892871 -0.018526299 -0.33049342 0.16186163 -0.3511533 0.18379742 -0.07509383 -0.012026884 0.16976866 -0.3850132 0.39926282
will 0.4890698 -0.3289904 -0.43454468 -0.0024593477 -0.16678134 -0.23343626 0.06058756 -0.22353318 -0.41870824 0.59708804 0.36306468 -0.4166898 -0.21442528 0.117184825 0.37599936 -0.060034286 -0.38777778 0.14934507 -0.278737 -0.3328921 -0.24754854 -0.06776984 0.20147178 -0.16683017 0.62411237 0.1850348 0.72601396 0.04721971 0.4708765 -0.0447598 0.58753 -0.5103651 -0.31948277 0.29366913 0.7988502 0.053833142 -0.2056313 -0.23887649 -0.19030628 -0.61290926 -0.45782828 0.31958306 0.30787605 0.3140245 0.7567314 -0.35057652 -0.08318214 -0.025190862 0.123792626 -0.25955778 0.10659841 -0.55335134 -0.25550747 -0.3323267 -0.1828197 0.32265508 -0.29095823 0.90304327 0.7495498 0.28394002 0.26377237 0.8425214 0.121053316 0.020022012 0.3464288 0.30981097 -0.28245175 -0.22931147 1.045659 -0.5147602 -0.44077265 -0.7245638 -0.19585869 0.2234993 0.06588697 0.049741514 -0.28413662 -0.3347421 -0.3031178 -0.07169414 0.17893764 1.0007623 0.059857763 -0.63870114 -0.47703132 -0.46094358 -0.23107348 -0.016146405 -0.13387667 0.23789372 0.44181246 -0.23360206 0.43338662 -0.0062767854 0.40795287 0.16542807 -0.65268445 0.16125776 -0.47095323 0.85655755
some 0.089136556 0.028309675 -0.44423172 0.04006256 0.33646348 -0.7009172 -0.39453977 -0.2553289 -0.04640083 0.572194 -0.11333674 -0.5210242 0.1898779 -0.027792785 0.27191317 0.11417523 0.011536234 0.267605 -0.33202508 0.24513856 -0.5269312 -0.18872727 0.21256824 0.084877774 0.48800078 0.6511088 0.7051582 0.14585981 0.33083883 -0.27299464 0.16160175 0.076260544 0.13443118 0.24304214 0.26600635 -0.1520574 0.21866055 -0.24402297 0.13551211 -0.13371547 -0.8894159 -0.21635929 0.17686988 0.04048949 0.11800116 -0.5035912 -0.096839115 -0.025472535 0.09087608 0.16653425 -0.22838669 -0.12228132 -0.058472354 -0.0122509105 -0.058535032 0.28720555 -0.7559699 0.36029008 0.2417415 0.18538213 0.21400881 0.70636284 0.26466462 0.093117714 0.5011164 0.073421866 0.042842515 -0.1403857 0.5179613 0.004865122 -0.42683798 -0.3178956 0.24552365 0.43875295 -0.064531036 0.18049757 -0.15204658 -0.26845342 -0.08709929 0.09187189 -0.17513223 0.39738983 0.28185678 -0.1888322 -0.5774147 -0.30062264 -0.41052192 -0.22484624 -0.3198974 -0.012267241 -0.019653104 -0.29527912 0.0737189 -0.25725678 0.32942036 -0.17245144 -0.024868408 0.1261403 -0.39367706 0.3940815
up 0.1266415 -0.2508563 -0.256483 -0.065594986 0.18986355 -0.49831465 -0.2036982 -0.3275749 -0.14979558 0.5624533 0.058713064 -0.48824054 -0.07470215 0.1145346 0.14580105 -0.10352853 0.07651869 0.3590997 -0.31455237 0.14304739 -0.46485052 -0.10499309 0.14859623 0.10933905 0.5104728 0.42868403 0.6141329 0.10292086 0.18917684 -0.17082816 0.22952777 -0.008462611 0.009519912 0.1989553 0.34133217 -0.1928771 0.16863617 -0.28585663 0.1319686 -0.23537432 -0.725755 -0.028359408 0.19360259 0.1080098 0.17639439 -0.48244607 -0.15596405 -0.20903288 0.15848446 0.017877197 -0.14068092 -0.29287595 0.08697287 -0.16791213 -0.10268143 0.06559967 -0.41426218 0.51729786 0.31565556 0.13019465 0.24359599 0.8122206 0.1794788 -0.014676155 0.35325286 0.08559906 -0.1159695 -0.25526267 0.81237495 -0.098377235 -0.46478453 -0.51326954 0.17476042 0.42115682 -0.07669537 0.14777534 -0.25971296 -0.21593416 -0.2061987 0.12991059 -0.04876004 0.5171476 0.21495014 -0.27508032 -0.69907326 -0.28875816 -0.4561346 -0.13387938 -0.09739396 0.062671915 0.08548594 -0.35204908 0.19551012 -0.11534195 0.20060848 -0.13635847 -0.059072763 0.08165704 -0.3918138 0.38812774
think 0.51386225 -0.19915123 -0.5680639 0.26606825 -0.42134246 -0.1690372 0.30603647 0.030393459 -0.4148402 0.4262973 0.44710383 -0.15601821 -0.01466079 0.13398272 0.39980158 0.038383987 -0.4125091 0.07610565 -0.061650887 -0.35928473 -0.17182375 -0.004117831 0.20082574 -0.4043829 0.5261601 0.28387374 0.86918896 -0.00666113 0.6558636 0.06829061 0.47794044 -0.37096542 -0.35023317 0.24627352 0.765146 0.1349166 -0.5529668 -0.13776141 -0.3319108 -0.5917915 -0.30860776 0.26703146 0.22354591 0.38201204 0.75672144 -0.41444102 0.013691728 0.09177211 -0.053093962 -0.19726202 0.14857784 -0.7022083 -0.47901902 -0.16389109 -0.104875706 0.26193652 -0.15620244 0.7137463 0.4718618 0.30071002 0.109846525 0.5322973 0.33983865 0.33475038 0.2180487 0.1953929 -0.25511122 -0.06652992 0.91510403 -0.7236782 -0.30018035 -0.5902123 -0.10252203 0.09039973 0.18755968 -0.045692112 -0.0408529 -0.4494105 -0.17891969 -0.22866869 -0.051666323 0.62888175 0.031067815 -0.5545905 -0.3170625 -0.6245111 -0.22143728 -0.029779952 -0.22371814 0.23782502 0.4082018 -0.30235532 0.40123534 -0.06793843 0.3611302 0.19601762 -0.63387316 0.27185437 -0.28140998 0.79509616
note 0.017282357 0.09070692 -0.44362095 0.22126414 0.33588687 -0.80611616 -0.40792283 -0.26693153 0.08234729 0.5317629 -0.054903034 -0.5166413 0.48444802 0.15250364 0.14877973 0.28438982 0.18348095 0.37369174 -0.3923763 0.45670778 -0.63948786 -0.29087624 0.22747621 -0.07634653 0.57136464 0.8279346 0.7971172 0.15389636 0.49627817 -0.47519952 0.031715605 0.5610303 0.2232506 0.03368986 0.2317906 -0.2536949 0.126129 -0.25536036 0.07366192 -0.10018894 -1.0248296 -0.462066 0.0693487 -0.031560183 -0.11201117 -0.70130277 -0.11302978 0.0037420744 0.038233932 0.38593552 -0.2599981 -0.11176911 -0.10960752 0.26668394 0.03495719 0.14805643 -0.65561193 0.08420872 -0.13164023 0.14439939 0.043658238 0.7212041 0.39922574 0.21655774 0.3907697 -0.05653564 0.16480513 -0.22076589 0.39497358 -0.109390825 -0.438122 -0.18453074 0.45353192 0.57863116 -0.056246776 0.22119047 -0.020981874 -0.36570206 0.048617978 -0.045152005 -0.51610327 -0.06841586 0.60098 -0.11494401 -0.5541734 -0.25161174 -0.64861584 -0.37577018 -0.518117 -0.23327217 -0.32586843 -0.27719778 0.13618869 -0.4222891 0.25835007 -0.21405043 0.17692618 0.18165934 -0.23473378 0.27662584
too -0.013129571 -0.12051439 -0.4152566 0.3185119 0.19354552 -0.44999123 -0.031867716 -0.21105844 -0.017027626 0.23408361 0.29588833 -0.24680293 0.38942587 0.23585841 0.17343865 0.11334303 0.118431814 0.35994563 -0.32124418 0.027851732 -0.49914867 -0.21213217 0.22838496 -0.2660887 0.6394663 0.6813446 0.6924775 0.16181675 0.47261778 -0.29304132 0.15672588 0.40279254 0.074891485 0.16921908 0.30957523 -0.16219066 0.012742011 -0.14485288 -0.110177524 -0.21758021 -0.73028886 -0.19607897 0.15862912 0.107543655 0.020744404 -0.65274704 -0.032445576 -0.04091254 -0.016938796 0.18665329 -0.16990021 -0.59545845 -0.103057735 0.018062409 0.08660685 0.101263866 -0.2968542 0.41569033 0.020599201 0.12978107 -0.019567592 0.59730303 0.40140426 0.24570718 0.35139444 -0.04854087 -0.15238671 -0.3207993 0.61173135 -0.34724557 -0.42528883 -0.4311293 0.2341759 0.38317066 0.26597038 0.25393736 -0.049783997 -0.3716885 0.08524417 0.013070256 -0.3739588 0.20164913 0.20633979 -0.242857 -0.545204 -0.4467312 -0.5593264 -0.24276555 -0.45262578 -0.07723104 -0.10290492 -0.25879186 0.24982399 -0.39527303 0.10861905 -0.08506098 -0.12612085 0.23453027 -0.2501418 0.5718922
time 0.26158887 -0.27818254 -0.1979623 -0.05934259 0.020775633 -0.28908527 -0.05815119 -0.3024088 -0.19508618 0.6213905 0.023959558 -0.54270196 -0.2850343 0.16465463 0.13902746 -0.14726426 0.024842951 0.25872833 -0.2291248 0.19918601 -0.3260675 -0.07230306 0.114175186 0.11133194 0.4525956 0.29425272 0.6283795 0.06445358 0.094157115 -0.11060797 0.25840336 -0.25291976 -0.13413483 0.07740294 0.4279952 -0.26197413 -0.04804365 -0.3101872 0.08993645 -0.37324125 -0.5617874 0.035642147 0.1957415 0.16876574 0.37585047 -0.40593842 -0.2124705 -0.28849217 0.15212134 -0.17115553 -0.04008973 -0.23635814 0.06954458 -0.15414952 -0.21318692 0.100836635 -0.3711215 0.5547721 0.40928382 0.18431313 0.33127525 0.76539314 0.08310006 -0.13581686 0.27048162 0.054847144 -0.12952895 -0.24870025 0.9174577 -0.025508594 -0.4037339 -0.6269189 0.113226004 0.3913294 -0.13395086 0.1634014 -0.2297652 -0.1901752 -0.3621507 0.10885502 0.11992694 0.51205707 0.19321373 -0.2935711 -0.6079358 -0.26145402 -0.36959344 -0.0719754 0.06643564 0.1943173 0.18971717 -0.4355059 0.29306814 0.06491743 0.26340988 0.044967003 -0.16018009 0.15086502 -0.3937879 0.23399618
well -0.12592784 -0.037776925 -0.44858325 0.27717665 0.39838243 -0.53975916 -0.15557593 -0.1654097 -0.015394323 0.1935041 0.060316678 -0.3031251 0.4283691 0.18550293 0.26094332 0.11152206 0.08985921 0.4889773 -0.38252765 0.12261715 -0.54158604 -0.25401634 0.22977282 -0.1186059 0.5812632 0.6997056 0.6347969 0.18335679 0.51431066 -0.2424119 0.18763769 0.44845256 0.101166986 0.21148682 0.20394358 -0.20274003 0.27568159 -0.12071257 0.09009846 -0.12395418 -0.76642483 -0.28103918 0.16384268 0.1613744 -0.07978698 -0.5924347 -0.030472225 -0.019832084 0.030664932 0.23862782 -0.30840844 -0.3811072 0.023237627 0.019276645 0.02839528 0.14905794 -0.4900212 0.34694794 0.0015024815 0.061124194 0.0099648675 0.6336921 0.35184988 0.19423041 0.39236537 -0.15399815 -0.05061584 -0.27354848 0.48200995 -0.23418605 -0.43921253 -0.2627493 0.26992673 0.33561087 0.23850714 0.18746158 -0.14478059 -0.28311408 0.1051798 0.09246588 -0.33059263 0.1291219 0.190864 -0.09939492 -0.5756487 -0.35771605 -0.66605777 -0.23498645 -0.51705635 -0.09151871 -0.20635478 -0.16587195 0.12022698 -0.44190046 0.17320153 -0.15304038 -0.036480792 0.26797357 -0.33212245 0.46941927
than -0.12998351 -0.24142067 -0.2822476 0.15443453 0.35609296 -0.5008243 -0.2320631 -0.19073433 -0.1960693 0.3759366 -0.0061073336 -0.23866382 0.21340609 0.06354252 0.10112446 -0.09057357 0.15538421 0.36751568 -0.32316944 0.23509642 -0.55666065 -0.1530638 0.07884676 -0.0076099974 0.45475882 0.60231984 0.5911393 0.10869932 0.38788235 -0.1245076 0.07097449 0.19854516 0.020490339 0.2659992 0.2678139 -0.15781283 0.22587404 -0.27758864 0.2368007 -0.10878706 -0.70080775 -0.105794854 0.16399886 0.1303421 0.06264787 -0.4990673 -0.11103815 -0.0654763 0.12349832 0.11300614 -0.3080088 -0.30003944 0.17523305 -0.2158708 -0.108896166 0.006257132 -0.39979777 0.512855 0.11679892 0.15796107 0.17373437 0.5208026 0.34097502 0.026835334 0.40209445 -0.051734876 -0.120274365 -0.23992173 0.669204 -0.1618913 -0.4996547 -0.2587005 0.18442996 0.24577604 0.119722396 0.15781976 -0.2974595 -0.17990774 -0.091916226 0.09540635 -0.29580668 0.27228168 0.16636384 -0.12152988 -0.69057757 -0.4156795 -0.5297187 -0.005635514 -0.20435801 -0.05576536 0.07386411 -0.17542629 0.11407449 -0.27601084 0.18216786 -0.16968715 -0.05859664 0.27055922 -0.3443061 0.38619038
because 0.4200649 -0.16943476 -0.49411088 0.210958 -0.22394876 -0.26786888 0.11165974 -0.17807385 -0.19077209 0.43103054 0.38852984 -0.3125323 0.077119365 0.19128866 0.39659512 0.06297791 -0.28261882 0.15018992 -0.1868717 -0.17470329 -0.29839078 -0.14981835 0.1785682 -0.2419862 0.6307017 0.40957206 0.7821433 0.084290825 0.48965728 -0.14534214 0.40219128 -0.16575348 -0.1549788 0.1928899 0.65677637 0.05067517 -0.36983958 -0.21367617 -0.18180227 -0.5051609 -0.5400131 0.025080444 0.24180545 0.2524557 0.5236764 -0.44366625 -0.043490633 0.008979814 0.012955479 -0.066699505 0.09249335 -0.5939934 -0.3783229 -0.1378534 0.022691093 0.280733 -0.29278383 0.6530352 0.36447173 0.22391964 0.15659754 0.72601694 0.2750828 0.19952519 0.29914424 0.108272254 -0.23944198 -0.17732199 0.8132384 -0.46326178 -0.3482417 -0.5976568 0.07448549 0.2505178 0.22216117 0.095633045 -0.06594955 -0.4178853 -0.14279683 -0.10124471 -0.012637524 0.6254745 0.09286585 -0.4839072 -0.43470848 -0.49717602 -0.34417203 -0.15819904 -0.2184847 0.1202345 0.27378723 -0.27057648 0.3834606 -0.09864024 0.31861907 0.13818757 -0.4957943 0.18031782 -0.34707797 0.7699464
no -0.014829711 -0.13773683 -0.42698368 0.15538959 0.18768913 -0.4808423 -0.17838241 -0.21817581 -0.18372151 0.3790177 -0.031120477 -0.3592573 0.15719168 0.06731743 0.25541258 0.017465008 -0.07951284 0.3208714 -0.26959014 0.110636435 -0.4080088 -0.12246782 0.15249838 -0.0031304194 0.48860016 0.48763484 0.63253385 0.08832657 0.41954088 -0.11694208 0.13285351 0.06352875 0.023009231 0.23222609 0.33101344 -0.19347815 0.14922826 -0.18153062 0.12953585 -0.18069482 -0.6502781 -0.12945333 0.23770009 0.14262494 0.15999775 -0.42211917 -0.074311465 -0.052555244 0.112508155 0.098757684 -0.260296 -0.27928764 0.014118557 -0.12786071 -0.11653399 0.22666462 -0.48567188 0.54803383 0.28058746 0.17005321 0.18641993 0.6062037 0.23440367 0.019140746 0.40531388 -0.07885411 -0.092962846 -0.20299213 0.64570075 -0.18367754 -0.43574324 -0.32547235 0.19655499 0.344976 0.11369488 0.18085979 -0.1840735 -0.24213813 -0.110072896 0.05237952 -0.10679735 0.43688664 0.1492965 -0.21442354 -0.5865197 -0.411165 -0.5301087 -0.046608694 -0.19636333 0.004414518 0.058859803 -0.23184405 0.11564323 -0.22812171 0.25426853 -0.056830756 -0.22692129 0.23442756 -0.35537705 0.49663785
longevity -0.85012424 -0.5736821 -0.40052402 0.0979011 0.7620725 -0.53500646 -0.2259816 0.0546603 -0.67736554 -0.15494041 -0.5954464 -0.22071092 -0.11535049 0.053676452 0.038971208 -0.41393602 0.11176653 0.8641763 -0.42282823 0.19017042 -0.33520436 0.29504415 -0.0068249996 0.2768328 0.18142147 0.4570148 0.38012257 0.12445383 0.4140504 0.49688122 -0.33235103 0.42805612 -0.09389214 0.58175015 -0.10128687 -0.7019081 1.1259816 -0.1393499 0.8701862 -0.17234845 -0.47535193 0.049249105 0.2702453 0.3699245 -0.29133773 -0.34330586 -0.048833024 -0.2678535 0.22064567 0.15305574 -1.0174732 -0.17531243 1.0983701 -0.5057231 -0.69157565 -0.34050283 -0.12090225 1.0497686 0.5091828 -0.035931136 0.3928414 0.38744545 0.24047768 -0.46872205 0.5390726 -0.70825636 -0.22278082 -0.3642828 1.0992985 -0.2760352 -0.88828963 -0.02292719 0.14163186 0.030142931 0.17415184 0.19131862 -0.7125224 0.21573393 -0.18240769 0.34962648 -0.29065078 0.17026855 -0.093536526 0.2032432 -0.9273466 -0.7861292 -1.0888621 0.523142 0.14996015 0.2381483 -0.009858872 -0.2723679 -0.36934835 -0.41232792 0.16395998 -0.3657618 -0.16703305 0.6387536 -0.5127213 0.104189254
much 0.18221004 -0.15226814 -0.45682615 0.28935802 0.021220995 -0.31433773 0.048409764 -0.12783545 -0.17164016 0.27401528 0.3418235 -0.19721723 0.24959947 0.1589778 0.34922415 0.039777815 -0.1912659 0.27443144 -0.22087382 -0.12749898 -0.39432928 -0.21442343 0.15930253 -0.23813425 0.6262484 0.56629926 0.7515107 0.11210352 0.54415894 -0.14665663 0.37124124 0.021651579 -0.10091703 0.26814514 0.50628084 -0.0025742599 -0.10019267 -0.18056585 -0.07018374 -0.3422667 -0.6123147 -0.0045420513 0.25020525 0.27662125 0.3487353 -0.5266979 -0.059613716 0.01739512 0.037109483 -0.017450593 -0.029435152 -0.6448921 -0.22453609 -0.16938284 0.02325633 0.23482753 -0.35012904 0.6233389 0.21965013 0.20235847 0.096031785 0.66034865 0.37513554 0.22989263 0.4222403 0.025821213 -0.23495138 -0.19067512 0.7152547 -0.41295838 -0.45097762 -0.5172043 0.07548571 0.18078128 0.31099248 0.13436836 -0.11420194 -0.3299348 -0.026199436 -0.030926175 -0.14738734 0.5022735 0.020629507 -0.37067938 -0.5043871 -0.52380776 -0.44894797 -0.18337448 -0.36394203 0.056525845 0.21527615 -0.20696236 0.30011296 -0.2643416 0.2517002 0.05615939 -0.3672077 0.23952939 -0.37840852 0.75186455
summer -0.13924196 -0.33852437 -0.25194073 0.011430916 0.24498548 -0.3729551 -0.07091949 -0.30918798 -0.14998624 0.30925432 -0.008501007 -0.4075806 -0.06584836 0.1792692 0.1276021 -0.19987728 0.12604569 0.35226142 -0.28715318 0.15047322 -0.39600533 -0.07492082 0.12543909 0.054243546 0.36503527 0.30490997 0.4712662 0.12966928 0.19933793 -0.087026596 0.056065075 0.09942125 -0.05467671 0.14479393 0.16308591 -0.30848947 0.20744102 -0.20011185 0.18343244 -0.2411138 -0.5570107 -0.02017992 0.18199252 0.10804789 0.08733009 -0.42635322 -0.10495218 -0.28567973 0.1295398 0.022520376 -0.28297266 -0.2274727 0.25515485 -0.11714324 -0.17391562 -0.005891791 -0.2585009 0.4451633 0.25527966 0.07810722 0.17427078 0.72684467 0.16691306 -0.096241735 0.20450394 -0.14158036 -0.15973997 -0.3677534 0.8093078 -0.13876635 -0.46134976 -0.36104348 0.22864741 0.45456377 -0.024466157 0.19560024 -0.20136648 -0.12249905 -0.17569989 0.08978504 -0.12991767 0.27853042 0.23691328 -0.094264574 -0.6744989 -0.3626451 -0.6037943 -0.03595306 -0.09605077 0.08360359 -0.056825627 -0.35945868 0.097197615 -0.16551779 0.10181353 -0.10244343 -0.047715653 0.20482552 -0.29548615 0.23951411
day 0.16673657 -0.33867118 -0.21686476 -0.11759185 0.09044262 -0.27222183 -0.07466409 -0.32370284 -0.20130773 0.46506417 0.08736334 -0.48445898 -0.2486565 0.15785152 0.17169778 -0.23404753 0.013194702 0.32680604 -0.2611128 0.08709831 -0.38463175 -0.11480733 0.069566384 0.10744496 0.43159255 0.274719 0.55485314 0.1035019 0.068404935 -0.13526733 0.27654815 -0.21967515 -0.12996104 0.18261981 0.35213822 -0.2083611 0.08906089 -0.31777617 0.16552557 -0.34499708 -0.56881756 0.10313481 0.24777053 0.15968207 0.29680514 -0.3730061 -0.17888284 -0.33693004 0.16918167 -0.15082817 -0.055256903 -0.31512308 0.11751345 -0.2272854 -0.13826746 0.06086653 -0.28927207 0.544839 0.38716024 0.13793224 0.3011649 0.8173624 0.08964208 -0.09573501 0.28037083 0.071593225 -0.22584535 -0.31550413 0.88522637 -0.05704472 -0.4643544 -0.6136224 0.07199642 0.3131244 -0.049498733 0.14169142 -0.2868934 -0.11632175 -0.28225 0.1837828 0.0930318 0.580346 0.10529868 -0.2603053 -0.6536023 -0.2554271 -0.413001 -0.09256174 0.05242405 0.20151706 0.20759211 -0.33908936 0.25896594 0.020141454 0.15530275 -0.0006590335 -0.17248704 0.070500076 -0.3985671 0.29058853
